{"learner":{"attributes":{},"feature_names":[],"feature_types":[],"gradient_booster":{"model":{"gbtree_model_param":{"num_parallel_tree":"1","num_trees":"1500"},"iteration_indptr":[0,2,4,6,8,10,12,14,16,18,20,22,24,26,28,30,32,34,36,38,40,42,44,46,48,50,52,54,56,58,60,62,64,66,68,70,72,74,76,78,80,82,84,86,88,90,92,94,96,98,100,102,104,106,108,110,112,114,116,118,120,122,124,126,128,130,132,134,136,138,140,142,144,146,148,150,152,154,156,158,160,162,164,166,168,170,172,174,176,178,180,182,184,186,188,190,192,194,196,198,200,202,204,206,208,210,212,214,216,218,220,222,224,226,228,230,232,234,236,238,240,242,244,246,248,250,252,254,256,258,260,262,264,266,268,270,272,274,276,278,280,282,284,286,288,290,292,294,296,298,300,302,304,306,308,310,312,314,316,318,320,322,324,326,328,330,332,334,336,338,340,342,344,346,348,350,352,354,356,358,360,362,364,366,368,370,372,374,376,378,380,382,384,386,388,390,392,394,396,398,400,402,404,406,408,410,412,414,416,418,420,422,424,426,428,430,432,434,436,438,440,442,444,446,448,450,452,454,456,458,460,462,464,466,468,470,472,474,476,478,480,482,484,486,488,490,492,494,496,498,500,502,504,506,508,510,512,514,516,518,520,522,524,526,528,530,532,534,536,538,540,542,544,546,548,550,552,554,556,558,560,562,564,566,568,570,572,574,576,578,580,582,584,586,588,590,592,594,596,598,600,602,604,606,608,610,612,614,616,618,620,622,624,626,628,630,632,634,636,638,640,642,644,646,648,650,652,654,656,658,660,662,664,666,668,670,672,674,676,678,680,682,684,686,688,690,692,694,696,698,700,702,704,706,708,710,712,714,716,718,720,722,724,726,728,730,732,734,736,738,740,742,744,746,748,750,752,754,756,758,760,762,764,766,768,770,772,774,776,778,780,782,784,786,788,790,792,794,796,798,800,802,804,806,808,810,812,814,816,818,820,822,824,826,828,830,832,834,836,838,840,842,844,846,848,850,852,854,856,858,860,862,864,866,868,870,872,874,876,878,880,882,884,886,888,890,892,894,896,898,900,902,904,906,908,910,912,914,916,918,920,922,924,926,928,930,932,934,936,938,940,942,944,946,948,950,952,954,956,958,960,962,964,966,968,970,972,974,976,978,980,982,984,986,988,990,992,994,996,998,1000,1002,1004,1006,1008,1010,1012,1014,1016,1018,1020,1022,1024,1026,1028,1030,1032,1034,1036,1038,1040,1042,1044,1046,1048,1050,1052,1054,1056,1058,1060,1062,1064,1066,1068,1070,1072,1074,1076,1078,1080,1082,1084,1086,1088,1090,1092,1094,1096,1098,1100,1102,1104,1106,1108,1110,1112,1114,1116,1118,1120,1122,1124,1126,1128,1130,1132,1134,1136,1138,1140,1142,1144,1146,1148,1150,1152,1154,1156,1158,1160,1162,1164,1166,1168,1170,1172,1174,1176,1178,1180,1182,1184,1186,1188,1190,1192,1194,1196,1198,1200,1202,1204,1206,1208,1210,1212,1214,1216,1218,1220,1222,1224,1226,1228,1230,1232,1234,1236,1238,1240,1242,1244,1246,1248,1250,1252,1254,1256,1258,1260,1262,1264,1266,1268,1270,1272,1274,1276,1278,1280,1282,1284,1286,1288,1290,1292,1294,1296,1298,1300,1302,1304,1306,1308,1310,1312,1314,1316,1318,1320,1322,1324,1326,1328,1330,1332,1334,1336,1338,1340,1342,1344,1346,1348,1350,1352,1354,1356,1358,1360,1362,1364,1366,1368,1370,1372,1374,1376,1378,1380,1382,1384,1386,1388,1390,1392,1394,1396,1398,1400,1402,1404,1406,1408,1410,1412,1414,1416,1418,1420,1422,1424,1426,1428,1430,1432,1434,1436,1438,1440,1442,1444,1446,1448,1450,1452,1454,1456,1458,1460,1462,1464,1466,1468,1470,1472,1474,1476,1478,1480,1482,1484,1486,1488,1490,1492,1494,1496,1498,1500],"tree_info":[0,1,0,1,0,1,0,1,0,1,0,1,0,1,0,1,0,1,0,1,0,1,0,1,0,1,0,1,0,1,0,1,0,1,0,1,0,1,0,1,0,1,0,1,0,1,0,1,0,1,0,1,0,1,0,1,0,1,0,1,0,1,0,1,0,1,0,1,0,1,0,1,0,1,0,1,0,1,0,1,0,1,0,1,0,1,0,1,0,1,0,1,0,1,0,1,0,1,0,1,0,1,0,1,0,1,0,1,0,1,0,1,0,1,0,1,0,1,0,1,0,1,0,1,0,1,0,1,0,1,0,1,0,1,0,1,0,1,0,1,0,1,0,1,0,1,0,1,0,1,0,1,0,1,0,1,0,1,0,1,0,1,0,1,0,1,0,1,0,1,0,1,0,1,0,1,0,1,0,1,0,1,0,1,0,1,0,1,0,1,0,1,0,1,0,1,0,1,0,1,0,1,0,1,0,1,0,1,0,1,0,1,0,1,0,1,0,1,0,1,0,1,0,1,0,1,0,1,0,1,0,1,0,1,0,1,0,1,0,1,0,1,0,1,0,1,0,1,0,1,0,1,0,1,0,1,0,1,0,1,0,1,0,1,0,1,0,1,0,1,0,1,0,1,0,1,0,1,0,1,0,1,0,1,0,1,0,1,0,1,0,1,0,1,0,1,0,1,0,1,0,1,0,1,0,1,0,1,0,1,0,1,0,1,0,1,0,1,0,1,0,1,0,1,0,1,0,1,0,1,0,1,0,1,0,1,0,1,0,1,0,1,0,1,0,1,0,1,0,1,0,1,0,1,0,1,0,1,0,1,0,1,0,1,0,1,0,1,0,1,0,1,0,1,0,1,0,1,0,1,0,1,0,1,0,1,0,1,0,1,0,1,0,1,0,1,0,1,0,1,0,1,0,1,0,1,0,1,0,1,0,1,0,1,0,1,0,1,0,1,0,1,0,1,0,1,0,1,0,1,0,1,0,1,0,1,0,1,0,1,0,1,0,1,0,1,0,1,0,1,0,1,0,1,0,1,0,1,0,1,0,1,0,1,0,1,0,1,0,1,0,1,0,1,0,1,0,1,0,1,0,1,0,1,0,1,0,1,0,1,0,1,0,1,0,1,0,1,0,1,0,1,0,1,0,1,0,1,0,1,0,1,0,1,0,1,0,1,0,1,0,1,0,1,0,1,0,1,0,1,0,1,0,1,0,1,0,1,0,1,0,1,0,1,0,1,0,1,0,1,0,1,0,1,0,1,0,1,0,1,0,1,0,1,0,1,0,1,0,1,0,1,0,1,0,1,0,1,0,1,0,1,0,1,0,1,0,1,0,1,0,1,0,1,0,1,0,1,0,1,0,1,0,1,0,1,0,1,0,1,0,1,0,1,0,1,0,1,0,1,0,1,0,1,0,1,0,1,0,1,0,1,0,1,0,1,0,1,0,1,0,1,0,1,0,1,0,1,0,1,0,1,0,1,0,1,0,1,0,1,0,1,0,1,0,1,0,1,0,1,0,1,0,1,0,1,0,1,0,1,0,1,0,1,0,1,0,1,0,1,0,1,0,1,0,1,0,1,0,1,0,1,0,1,0,1,0,1,0,1,0,1,0,1,0,1,0,1,0,1,0,1,0,1,0,1,0,1,0,1,0,1,0,1,0,1,0,1,0,1,0,1,0,1,0,1,0,1,0,1,0,1,0,1,0,1,0,1,0,1,0,1,0,1,0,1,0,1,0,1,0,1,0,1,0,1,0,1,0,1,0,1,0,1,0,1,0,1,0,1,0,1,0,1,0,1,0,1,0,1,0,1,0,1,0,1,0,1,0,1,0,1,0,1,0,1,0,1,0,1,0,1,0,1,0,1,0,1,0,1,0,1,0,1,0,1,0,1,0,1,0,1,0,1,0,1,0,1,0,1,0,1,0,1,0,1,0,1,0,1,0,1,0,1,0,1,0,1,0,1,0,1,0,1,0,1,0,1,0,1,0,1,0,1,0,1,0,1,0,1,0,1,0,1,0,1,0,1,0,1,0,1,0,1,0,1,0,1,0,1,0,1,0,1,0,1,0,1,0,1,0,1,0,1,0,1,0,1,0,1,0,1,0,1,0,1,0,1,0,1,0,1,0,1,0,1,0,1,0,1,0,1,0,1,0,1,0,1,0,1,0,1,0,1,0,1,0,1,0,1,0,1,0,1,0,1,0,1,0,1,0,1,0,1,0,1,0,1,0,1,0,1,0,1,0,1,0,1,0,1,0,1,0,1,0,1,0,1,0,1,0,1,0,1,0,1,0,1,0,1,0,1,0,1,0,1,0,1,0,1,0,1,0,1,0,1,0,1,0,1,0,1,0,1,0,1,0,1,0,1,0,1,0,1,0,1,0,1,0,1,0,1,0,1,0,1,0,1,0,1,0,1,0,1,0,1,0,1,0,1,0,1,0,1,0,1,0,1,0,1,0,1,0,1,0,1,0,1,0,1,0,1,0,1,0,1,0,1,0,1,0,1,0,1,0,1,0,1,0,1,0,1,0,1,0,1,0,1,0,1,0,1,0,1,0,1,0,1,0,1,0,1,0,1,0,1,0,1,0,1,0,1,0,1,0,1,0,1,0,1,0,1,0,1,0,1,0,1,0,1,0,1,0,1,0,1,0,1,0,1,0,1,0,1,0,1,0,1,0,1,0,1,0,1,0,1,0,1,0,1,0,1,0,1,0,1,0,1,0,1,0,1,0,1,0,1,0,1,0,1,0,1,0,1,0,1,0,1,0,1,0,1,0,1,0,1,0,1,0,1,0,1,0,1,0,1,0,1,0,1,0,1,0,1,0,1,0,1,0,1,0,1,0,1,0,1,0,1,0,1,0,1,0,1,0,1,0,1,0,1,0,1,0,1,0,1,0,1,0,1,0,1,0,1,0,1,0,1,0,1,0,1,0,1,0,1,0,1,0,1,0,1,0,1,0,1,0,1,0,1,0,1,0,1,0,1,0,1,0,1,0,1,0,1,0,1,0,1,0,1,0,1,0,1,0,1,0,1,0,1,0,1,0,1,0,1,0,1,0,1,0,1,0,1,0,1,0,1,0,1,0,1,0,1,0,1,0,1,0,1,0,1,0,1,0,1,0,1,0,1,0,1,0,1,0,1,0,1,0,1,0,1,0,1,0,1,0,1,0,1,0,1,0,1,0,1,0,1,0,1,0,1,0,1,0,1,0,1,0,1,0,1,0,1,0,1,0,1,0,1,0,1,0,1,0,1,0,1,0,1,0,1,0,1,0,1,0,1,0,1,0,1,0,1,0,1,0,1,0,1,0,1,0,1,0,1,0,1,0,1,0,1,0,1,0,1,0,1,0,1,0,1,0,1,0,1,0,1,0,1],"trees":[{"base_weights":[-1.4943035E-1,-2.8541404E-1,1.6695185E-1,-1.1670299E-1,-4.757325E-1,-1.1128776E-1,2.9029983E-1,-2.7363184E-3,2.6924536E-4,-3.700971E-3,-6.185458E-3,5.6316593E-4,-2.9353234E-3,3.641946E-3,7.2222226E-4],"categories":[],"categories_nodes":[],"categories_segments":[],"categories_sizes":[],"default_left":[0,0,0,0,0,0,0,0,0,0,0,0,0,0,0],"id":0,"left_children":[1,3,5,7,9,11,13,-1,-1,-1,-1,-1,-1,-1,-1],"loss_changes":[2.927104E2,1.5271829E2,7.023447E1,5.6885296E1,3.3496124E1,1.9229324E1,2.2816422E1,0E0,0E0,0E0,0E0,0E0,0E0,0E0,0E0],"parents":[2147483647,0,0,1,1,2,2,3,3,4,4,5,5,6,6],"right_children":[2,4,6,8,10,12,14,-1,-1,-1,-1,-1,-1,-1,-1],"split_conditions":[2E1,1.4E1,-2E0,1E1,2.3E1,-4.8E0,-2.7E0,-2.7363184E-3,2.6924536E-4,-3.700971E-3,-6.185458E-3,5.6316593E-4,-2.9353234E-3,3.641946E-3,7.2222226E-4],"split_indices":[28,80,77,51,80,25,25,0,0,0,0,0,0,0,0],"split_type":[0,0,0,0,0,0,0,0,0,0,0,0,0,0,0],"sum_hessian":[6.8015E3,4.757E3,2.0445E3,2.5225E3,2.2345E3,6.28E2,1.4165E3,1.205E3,1.3175E3,1.2865E3,9.48E2,3.275E2,3.005E2,1.0575E3,3.59E2],"tree_param":{"num_deleted":"0","num_feature":"106","num_nodes":"15","size_leaf_vector":"1"}},{"base_weights":[1.4943035E-1,2.8541404E-1,-1.6695185E-1,1.1670299E-1,4.757325E-1,1.1128776E-1,-2.9029983E-1,2.7363184E-3,-2.6924536E-4,3.700971E-3,6.185458E-3,-5.6316593E-4,2.9353234E-3,-3.641946E-3,-7.2222226E-4],"categories":[],"categories_nodes":[],"categories_segments":[],"categories_sizes":[],"default_left":[0,0,0,0,0,0,0,0,0,0,0,0,0,0,0],"id":1,"left_children":[1,3,5,7,9,11,13,-1,-1,-1,-1,-1,-1,-1,-1],"loss_changes":[2.927104E2,1.5271829E2,7.023447E1,5.6885296E1,3.3496124E1,1.9229324E1,2.2816422E1,0E0,0E0,0E0,0E0,0E0,0E0,0E0,0E0],"parents":[2147483647,0,0,1,1,2,2,3,3,4,4,5,5,6,6],"right_children":[2,4,6,8,10,12,14,-1,-1,-1,-1,-1,-1,-1,-1],"split_conditions":[2E1,1.4E1,-2E0,1E1,2.3E1,-4.8E0,-2.7E0,2.7363184E-3,-2.6924536E-4,3.700971E-3,6.185458E-3,-5.6316593E-4,2.9353234E-3,-3.641946E-3,-7.2222226E-4],"split_indices":[28,80,77,51,80,25,25,0,0,0,0,0,0,0,0],"split_type":[0,0,0,0,0,0,0,0,0,0,0,0,0,0,0],"sum_hessian":[6.8015E3,4.757E3,2.0445E3,2.5225E3,2.2345E3,6.28E2,1.4165E3,1.205E3,1.3175E3,1.2865E3,9.48E2,3.275E2,3.005E2,1.0575E3,3.59E2],"tree_param":{"num_deleted":"0","num_feature":"106","num_nodes":"15","size_leaf_vector":"1"}},{"base_weights":[-1.4793934E-1,-2.8256628E-1,1.6528468E-1,-1.15537375E-1,-4.7099102E-1,-1.1017909E-1,2.874028E-1,-2.708998E-3,2.6655447E-4,-3.6640398E-3,-6.1239046E-3,5.5755174E-4,-2.9060917E-3,3.6056088E-3,7.150209E-4],"categories":[],"categories_nodes":[],"categories_segments":[],"categories_sizes":[],"default_left":[0,0,0,0,0,0,0,0,0,0,0,0,0,0,0],"id":2,"left_children":[1,3,5,7,9,11,13,-1,-1,-1,-1,-1,-1,-1,-1],"loss_changes":[2.868938E2,1.4968918E2,6.883992E1,5.575473E1,3.2834595E1,1.8848093E1,2.2363228E1,0E0,0E0,0E0,0E0,0E0,0E0,0E0,0E0],"parents":[2147483647,0,0,1,1,2,2,3,3,4,4,5,5,6,6],"right_children":[2,4,6,8,10,12,14,-1,-1,-1,-1,-1,-1,-1,-1],"split_conditions":[2E1,1.4E1,-2E0,1E1,2.3E1,-4.8E0,-2.7E0,-2.708998E-3,2.6655447E-4,-3.6640398E-3,-6.1239046E-3,5.5755174E-4,-2.9060917E-3,3.6056088E-3,7.150209E-4],"split_indices":[28,80,77,51,80,25,25,0,0,0,0,0,0,0,0],"split_type":[0,0,0,0,0,0,0,0,0,0,0,0,0,0,0],"sum_hessian":[6.80142E3,4.756937E3,2.044483E3,2.522491E3,2.234446E3,6.279973E2,1.4164857E3,1.204991E3,1.3174999E3,1.2864824E3,9.479637E2,3.274999E2,3.004974E2,1.057486E3,3.5899982E2],"tree_param":{"num_deleted":"0","num_feature":"106","num_nodes":"15","size_leaf_vector":"1"}},{"base_weights":[1.4793932E-1,2.8256625E-1,-1.6528465E-1,1.1553734E-1,4.70991E-1,1.10179126E-1,-2.8740275E-1,2.708998E-3,-2.6655538E-4,3.6640398E-3,6.123903E-3,-5.5755174E-4,2.906093E-3,-3.6056088E-3,-7.1501976E-4],"categories":[],"categories_nodes":[],"categories_segments":[],"categories_sizes":[],"default_left":[0,0,0,0,0,0,0,0,0,0,0,0,0,0,0],"id":3,"left_children":[1,3,5,7,9,11,13,-1,-1,-1,-1,-1,-1,-1,-1],"loss_changes":[2.868937E2,1.4968921E2,6.883992E1,5.575476E1,3.2834534E1,1.88481E1,2.236325E1,0E0,0E0,0E0,0E0,0E0,0E0,0E0,0E0],"parents":[2147483647,0,0,1,1,2,2,3,3,4,4,5,5,6,6],"right_children":[2,4,6,8,10,12,14,-1,-1,-1,-1,-1,-1,-1,-1],"split_conditions":[2E1,1.4E1,-2E0,1E1,2.3E1,-4.8E0,-2.7E0,2.708998E-3,-2.6655538E-4,3.6640398E-3,6.123903E-3,-5.5755174E-4,2.906093E-3,-3.6056088E-3,-7.1501976E-4],"split_indices":[28,80,77,51,80,25,25,0,0,0,0,0,0,0,0],"split_type":[0,0,0,0,0,0,0,0,0,0,0,0,0,0,0],"sum_hessian":[6.80142E3,4.756937E3,2.044483E3,2.5224907E3,2.234446E3,6.279973E2,1.4164857E3,1.204991E3,1.3174999E3,1.2864824E3,9.4796375E2,3.274999E2,3.004974E2,1.057486E3,3.5899982E2],"tree_param":{"num_deleted":"0","num_feature":"106","num_nodes":"15","size_leaf_vector":"1"}},{"base_weights":[-1.4646655E-1,1.14058465E-1,-3.053328E-1,-1.5467031E-1,2.3586112E-1,-5.603628E-1,-1.8254632E-1,4.8294786E-4,-3.1793276E-3,8.317544E-4,3.49696E-3,-4.2695124E-3,-6.5188003E-3,-3.4880333E-3,-6.489128E-4],"categories":[],"categories_nodes":[],"categories_segments":[],"categories_sizes":[],"default_left":[0,0,0,0,0,0,0,0,0,0,0,0,0,0,0],"id":4,"left_children":[1,3,5,7,9,11,13,-1,-1,-1,-1,-1,-1,-1,-1],"loss_changes":[2.815679E2,8.439992E1,1.3222461E2,2.667276E1,3.0803658E1,1.648346E1,5.580291E1,0E0,0E0,0E0,0E0,0E0,0E0,0E0,0E0],"parents":[2147483647,0,0,1,1,2,2,3,3,4,4,5,5,6,6],"right_children":[2,4,6,8,10,12,14,-1,-1,-1,-1,-1,-1,-1,-1],"split_conditions":[4.64E-1,-2E0,-1.4E0,-4.8E0,2.4E1,2.3E1,8E0,4.8294786E-4,-3.1793276E-3,8.317544E-4,3.49696E-3,-4.2695124E-3,-6.5188003E-3,-3.4880333E-3,-6.489128E-4],"split_indices":[3,77,77,25,51,80,51,0,0,0,0,0,0,0,0],"split_type":[0,0,0,0,0,0,0,0,0,0,0,0,0,0,0],"sum_hessian":[6.8011836E3,2.576409E3,4.224775E3,8.034707E2,1.7729381E3,1.3718506E3,2.852924E3,3.5849722E2,4.4497348E2,7.579874E2,1.01495074E3,5.6047253E2,8.1137805E2,1.1814565E3,1.6714677E3],"tree_param":{"num_deleted":"0","num_feature":"106","num_nodes":"15","size_leaf_vector":"1"}},{"base_weights":[1.464666E-1,-1.140584E-1,3.0533284E-1,1.5467031E-1,-2.3586102E-1,5.603628E-1,1.8254633E-1,-4.8294786E-4,3.1793276E-3,-8.317536E-4,-3.4969589E-3,4.2695124E-3,6.5188003E-3,3.4880333E-3,6.48913E-4],"categories":[],"categories_nodes":[],"categories_segments":[],"categories_sizes":[],"default_left":[0,0,0,0,0,0,0,0,0,0,0,0,0,0,0],"id":5,"left_children":[1,3,5,7,9,11,13,-1,-1,-1,-1,-1,-1,-1,-1],"loss_changes":[2.8156787E2,8.439988E1,1.3222455E2,2.667276E1,3.0803642E1,1.648346E1,5.5802902E1,0E0,0E0,0E0,0E0,0E0,0E0,0E0,0E0],"parents":[2147483647,0,0,1,1,2,2,3,3,4,4,5,5,6,6],"right_children":[2,4,6,8,10,12,14,-1,-1,-1,-1,-1,-1,-1,-1],"split_conditions":[4.64E-1,-2E0,-1.4E0,-4.8E0,2.4E1,2.3E1,8E0,-4.8294786E-4,3.1793276E-3,-8.317536E-4,-3.4969589E-3,4.2695124E-3,6.5188003E-3,3.4880333E-3,6.48913E-4],"split_indices":[3,77,77,25,51,80,51,0,0,0,0,0,0,0,0],"split_type":[0,0,0,0,0,0,0,0,0,0,0,0,0,0,0],"sum_hessian":[6.8011836E3,2.576409E3,4.2247744E3,8.034707E2,1.7729381E3,1.3718506E3,2.852924E3,3.5849722E2,4.4497348E2,7.5798737E2,1.01495074E3,5.6047253E2,8.1137805E2,1.1814565E3,1.6714675E3],"tree_param":{"num_deleted":"0","num_feature":"106","num_nodes":"15","size_leaf_vector":"1"}},{"base_weights":[-1.450117E-1,-2.770774E-1,1.6224188E-1,-1.1283639E-1,-4.623844E-1,-1.0777264E-1,2.819484E-1,-2.653214E-3,2.6713847E-4,-3.601871E-3,-6.005792E-3,5.471789E-4,-2.8447132E-3,4.351722E-3,1.8078835E-3],"categories":[],"categories_nodes":[],"categories_segments":[],"categories_sizes":[],"default_left":[0,0,0,0,0,0,0,0,0,0,0,0,0,0,0],"id":6,"left_children":[1,3,5,7,9,11,13,-1,-1,-1,-1,-1,-1,-1,-1],"loss_changes":[2.76047E2,1.4474127E2,6.61414E1,5.370359E1,3.134964E1,1.8074583E1,2.189093E1,0E0,0E0,0E0,0E0,0E0,0E0,0E0,0E0],"parents":[2147483647,0,0,1,1,2,2,3,3,4,4,5,5,6,6],"right_children":[2,4,6,8,10,12,14,-1,-1,-1,-1,-1,-1,-1,-1],"split_conditions":[2E1,1.4E1,-2E0,1E1,2.3E1,-4.8E0,-6.2E0,-2.653214E-3,2.6713847E-4,-3.601871E-3,-6.005792E-3,5.471789E-4,-2.8447132E-3,4.351722E-3,1.8078835E-3],"split_indices":[28,80,77,51,80,25,25,0,0,0,0,0,0,0,0],"split_type":[0,0,0,0,0,0,0,0,0,0,0,0,0,0,0],"sum_hessian":[6.8008213E3,4.756465E3,2.0443563E3,2.5224126E3,2.2340522E3,6.279741E2,1.4163822E3,1.2049146E3,1.3174982E3,1.2863682E3,9.476841E2,3.2749915E2,3.0047498E2,5.6193536E2,8.544469E2],"tree_param":{"num_deleted":"0","num_feature":"106","num_nodes":"15","size_leaf_vector":"1"}},{"base_weights":[1.450117E-1,2.7707744E-1,-1.622419E-1,1.12836376E-1,4.6238443E-1,1.0777264E-1,-2.8194842E-1,2.6532137E-3,-2.6713847E-4,3.601871E-3,6.0057924E-3,-5.471798E-4,2.844714E-3,-4.351722E-3,-1.807884E-3],"categories":[],"categories_nodes":[],"categories_segments":[],"categories_sizes":[],"default_left":[0,0,0,0,0,0,0,0,0,0,0,0,0,0,0],"id":7,"left_children":[1,3,5,7,9,11,13,-1,-1,-1,-1,-1,-1,-1,-1],"loss_changes":[2.7604706E2,1.4474133E2,6.614142E1,5.3703583E1,3.134964E1,1.8074602E1,2.1890923E1,0E0,0E0,0E0,0E0,0E0,0E0,0E0,0E0],"parents":[2147483647,0,0,1,1,2,2,3,3,4,4,5,5,6,6],"right_children":[2,4,6,8,10,12,14,-1,-1,-1,-1,-1,-1,-1,-1],"split_conditions":[2E1,1.4E1,-2E0,1E1,2.3E1,-4.8E0,-6.2E0,2.6532137E-3,-2.6713847E-4,3.601871E-3,6.0057924E-3,-5.471798E-4,2.844714E-3,-4.351722E-3,-1.807884E-3],"split_indices":[28,80,77,51,80,25,25,0,0,0,0,0,0,0,0],"split_type":[0,0,0,0,0,0,0,0,0,0,0,0,0,0,0],"sum_hessian":[6.8008213E3,4.756465E3,2.0443563E3,2.5224126E3,2.2340522E3,6.2797406E2,1.4163823E3,1.2049146E3,1.3174982E3,1.2863682E3,9.47684E2,3.2749915E2,3.0047495E2,5.6193536E2,8.544469E2],"tree_param":{"num_deleted":"0","num_feature":"106","num_nodes":"15","size_leaf_vector":"1"}},{"base_weights":[-1.4357382E-1,1.1207699E-1,-2.9947838E-1,-1.5127887E-1,2.3144409E-1,-5.500819E-1,-1.7885627E-1,4.7625916E-4,-3.1129834E-3,8.1599917E-4,3.4317342E-3,-4.194684E-3,-6.3970443E-3,-3.42449E-3,-6.309755E-4],"categories":[],"categories_nodes":[],"categories_segments":[],"categories_sizes":[],"default_left":[0,0,0,0,0,0,0,0,0,0,0,0,0,0,0],"id":8,"left_children":[1,3,5,7,9,11,13,-1,-1,-1,-1,-1,-1,-1,-1],"loss_changes":[2.7111395E2,8.105142E1,1.27619965E2,2.5617785E1,2.9668663E1,1.5796692E1,5.4020416E1,0E0,0E0,0E0,0E0,0E0,0E0,0E0,0E0],"parents":[2147483647,0,0,1,1,2,2,3,3,4,4,5,5,6,6],"right_children":[2,4,6,8,10,12,14,-1,-1,-1,-1,-1,-1,-1,-1],"split_conditions":[4.64E-1,-2E0,-1.4E0,-4.8E0,2.4E1,2.3E1,8E0,4.7625916E-4,-3.1129834E-3,8.1599917E-4,3.4317342E-3,-4.194684E-3,-6.3970443E-3,-3.42449E-3,-6.309755E-4],"split_indices":[3,77,77,25,51,80,51,0,0,0,0,0,0,0,0],"split_type":[0,0,0,0,0,0,0,0,0,0,0,0,0,0,0],"sum_hessian":[6.800303E3,2.5761836E3,4.22412E3,8.034E2,1.7727834E3,1.3713839E3,2.8527358E3,3.584936E2,4.4490646E2,7.579715E2,1.014812E3,5.603808E2,8.110032E2,1.181316E3,1.6714198E3],"tree_param":{"num_deleted":"0","num_feature":"106","num_nodes":"15","size_leaf_vector":"1"}},{"base_weights":[1.435738E-1,-1.1207699E-1,2.9947835E-1,1.5127882E-1,-2.3144406E-1,5.500819E-1,1.7885624E-1,-4.762602E-4,3.1129834E-3,-8.159986E-4,-3.4317344E-3,4.194684E-3,6.3970443E-3,3.4244894E-3,6.309753E-4],"categories":[],"categories_nodes":[],"categories_segments":[],"categories_sizes":[],"default_left":[0,0,0,0,0,0,0,0,0,0,0,0,0,0,0],"id":9,"left_children":[1,3,5,7,9,11,13,-1,-1,-1,-1,-1,-1,-1,-1],"loss_changes":[2.7111395E2,8.105139E1,1.27619965E2,2.56178E1,2.9668678E1,1.5796661E1,5.4020386E1,0E0,0E0,0E0,0E0,0E0,0E0,0E0,0E0],"parents":[2147483647,0,0,1,1,2,2,3,3,4,4,5,5,6,6],"right_children":[2,4,6,8,10,12,14,-1,-1,-1,-1,-1,-1,-1,-1],"split_conditions":[4.64E-1,-2E0,-1.4E0,-4.8E0,2.4E1,2.3E1,8E0,-4.762602E-4,3.1129834E-3,-8.159986E-4,-3.4317344E-3,4.194684E-3,6.3970443E-3,3.4244894E-3,6.309753E-4],"split_indices":[3,77,77,25,51,80,51,0,0,0,0,0,0,0,0],"split_type":[0,0,0,0,0,0,0,0,0,0,0,0,0,0,0],"sum_hessian":[6.800303E3,2.5761836E3,4.22412E3,8.034E2,1.7727834E3,1.3713839E3,2.852736E3,3.584936E2,4.4490646E2,7.579715E2,1.01481195E3,5.603808E2,8.110031E2,1.1813162E3,1.6714198E3],"tree_param":{"num_deleted":"0","num_feature":"106","num_nodes":"15","size_leaf_vector":"1"}},{"base_weights":[-1.4215358E-1,1.3559172E-1,-2.8287318E-1,-1.14400744E-1,2.5069568E-1,-5.3722286E-1,-1.6079995E-1,4.8897136E-4,-2.7253435E-3,1.5766186E-3,4.010092E-3,-3.960095E-3,-6.0464623E-3,-3.387778E-3,-4.8066338E-4],"categories":[],"categories_nodes":[],"categories_segments":[],"categories_sizes":[],"default_left":[0,0,0,0,0,0,0,0,0,0,0,0,0,0,0],"id":10,"left_children":[1,3,5,7,9,11,13,-1,-1,-1,-1,-1,-1,-1,-1],"loss_changes":[2.6583685E2,6.585391E1,1.4007278E2,1.8654612E1,2.184565E1,1.3694519E1,6.1211388E1,0E0,0E0,0E0,0E0,0E0,0E0,0E0,0E0],"parents":[2147483647,0,0,1,1,2,2,3,3,4,4,5,5,6,6],"right_children":[2,4,6,8,10,12,14,-1,-1,-1,-1,-1,-1,-1,-1],"split_conditions":[4.41E-1,-2E0,-1.4E0,-4.8E0,2.7E1,2.2E1,8E0,4.8897136E-4,-2.7253435E-3,1.5766186E-3,4.010092E-3,-3.960095E-3,-6.0464623E-3,-3.387778E-3,-4.8066338E-4],"split_indices":[3,77,77,25,51,80,51,0,0,0,0,0,0,0,0],"split_type":[0,0,0,0,0,0,0,0,0,0,0,0,0,0,0],"sum_hessian":[6.799662E3,2.286574E3,4.5130884E3,7.208902E2,1.5656837E3,1.462483E3,3.0506052E3,3.5499387E2,3.6589633E2,9.683748E2,5.973089E2,4.7483972E2,9.8764325E2,1.1822021E3,1.8684032E3],"tree_param":{"num_deleted":"0","num_feature":"106","num_nodes":"15","size_leaf_vector":"1"}},{"base_weights":[1.4215358E-1,-1.3559175E-1,2.8287318E-1,1.14400655E-1,-2.5069568E-1,5.372229E-1,1.6079997E-1,-4.889724E-4,2.7253428E-3,-1.5766188E-3,-4.010092E-3,3.9600953E-3,6.0464633E-3,3.387778E-3,4.8066344E-4],"categories":[],"categories_nodes":[],"categories_segments":[],"categories_sizes":[],"default_left":[0,0,0,0,0,0,0,0,0,0,0,0,0,0,0],"id":11,"left_children":[1,3,5,7,9,11,13,-1,-1,-1,-1,-1,-1,-1,-1],"loss_changes":[2.6583685E2,6.5853874E1,1.4007288E2,1.8654615E1,2.184565E1,1.3694519E1,6.121141E1,0E0,0E0,0E0,0E0,0E0,0E0,0E0,0E0],"parents":[2147483647,0,0,1,1,2,2,3,3,4,4,5,5,6,6],"right_children":[2,4,6,8,10,12,14,-1,-1,-1,-1,-1,-1,-1,-1],"split_conditions":[4.41E-1,-2E0,-1.4E0,-4.8E0,2.7E1,2.2E1,8E0,-4.889724E-4,2.7253428E-3,-1.5766188E-3,-4.010092E-3,3.9600953E-3,6.0464633E-3,3.387778E-3,4.8066344E-4],"split_indices":[3,77,77,25,51,80,51,0,0,0,0,0,0,0,0],"split_type":[0,0,0,0,0,0,0,0,0,0,0,0,0,0,0],"sum_hessian":[6.799662E3,2.286574E3,4.5130884E3,7.208902E2,1.5656837E3,1.4624829E3,3.0506055E3,3.5499387E2,3.6589636E2,9.683748E2,5.973089E2,4.7483972E2,9.876432E2,1.1822021E3,1.8684032E3],"tree_param":{"num_deleted":"0","num_feature":"106","num_nodes":"15","size_leaf_vector":"1"}},{"base_weights":[-1.4074963E-1,-2.5977725E-1,1.8168087E-1,-9.794277E-2,-4.3904036E-1,2.568224E-2,3.5310528E-1,-2.5734827E-3,3.8512892E-4,-5.339063E-3,-3.0127976E-3,1.4424707E-3,-1.5301415E-3,4.720635E-3,2.6066888E-3],"categories":[],"categories_nodes":[],"categories_segments":[],"categories_sizes":[],"default_left":[0,0,0,0,0,0,0,0,0,0,0,0,0,0,0],"id":12,"left_children":[1,3,5,7,9,11,13,-1,-1,-1,-1,-1,-1,-1,-1],"loss_changes":[2.610146E2,1.440513E2,4.9035778E1,5.681746E1,3.063269E1,2.0388855E1,9.484428E0,0E0,0E0,0E0,0E0,0E0,0E0,0E0,0E0],"parents":[2147483647,0,0,1,1,2,2,3,3,4,4,5,5,6,6],"right_children":[2,4,6,8,10,12,14,-1,-1,-1,-1,-1,-1,-1,-1],"split_conditions":[2.2E1,1.4E1,5.17E-1,1E1,-2E0,-4.7E0,-6.2E0,-2.5734827E-3,3.8512892E-4,-5.339063E-3,-3.0127976E-3,1.4424707E-3,-1.5301415E-3,4.720635E-3,2.6066888E-3],"split_indices":[29,80,55,51,77,25,25,0,0,0,0,0,0,0,0],"split_type":[0,0,0,0,0,0,0,0,0,0,0,0,0,0,0],"sum_hessian":[6.798896E3,4.9658936E3,1.8330024E3,2.6106277E3,2.355266E3,9.6028204E2,8.727204E2,1.2036526E3,1.406975E3,1.3930774E3,9.6218884E2,5.773824E2,3.828997E2,3.798181E2,4.9290228E2],"tree_param":{"num_deleted":"0","num_feature":"106","num_nodes":"15","size_leaf_vector":"1"}},{"base_weights":[1.4074965E-1,2.5977728E-1,-1.8168084E-1,9.794281E-2,4.3904036E-1,-2.56822E-2,-3.5310525E-1,2.5734836E-3,-3.8512892E-4,5.3390632E-3,3.0127969E-3,-1.4424702E-3,1.5301417E-3,-4.720635E-3,-2.6066883E-3],"categories":[],"categories_nodes":[],"categories_segments":[],"categories_sizes":[],"default_left":[0,0,0,0,0,0,0,0,0,0,0,0,0,0,0],"id":13,"left_children":[1,3,5,7,9,11,13,-1,-1,-1,-1,-1,-1,-1,-1],"loss_changes":[2.6101453E2,1.4405127E2,4.903578E1,5.6817505E1,3.063272E1,2.0388853E1,9.484444E0,0E0,0E0,0E0,0E0,0E0,0E0,0E0,0E0],"parents":[2147483647,0,0,1,1,2,2,3,3,4,4,5,5,6,6],"right_children":[2,4,6,8,10,12,14,-1,-1,-1,-1,-1,-1,-1,-1],"split_conditions":[2.2E1,1.4E1,5.17E-1,1E1,-2E0,-4.7E0,-6.2E0,2.5734836E-3,-3.8512892E-4,5.3390632E-3,3.0127969E-3,-1.4424702E-3,1.5301417E-3,-4.720635E-3,-2.6066883E-3],"split_indices":[29,80,55,51,77,25,25,0,0,0,0,0,0,0,0],"split_type":[0,0,0,0,0,0,0,0,0,0,0,0,0,0,0],"sum_hessian":[6.798896E3,4.9658936E3,1.8330024E3,2.6106274E3,2.355266E3,9.602821E2,8.727204E2,1.2036525E3,1.406975E3,1.3930774E3,9.6218884E2,5.773824E2,3.8289972E2,3.798181E2,4.929023E2],"tree_param":{"num_deleted":"0","num_feature":"106","num_nodes":"15","size_leaf_vector":"1"}},{"base_weights":[-1.3936049E-1,1.0931589E-1,-2.9104152E-1,-1.4683364E-1,2.2541517E-1,-5.348618E-1,-1.7377435E-1,4.5743398E-4,-3.0181676E-3,7.945411E-4,3.3428157E-3,-4.0685623E-3,-6.227564E-3,-3.3307665E-3,-6.1083824E-4],"categories":[],"categories_nodes":[],"categories_segments":[],"categories_sizes":[],"default_left":[0,0,0,0,0,0,0,0,0,0,0,0,0,0,0],"id":14,"left_children":[1,3,5,7,9,11,13,-1,-1,-1,-1,-1,-1,-1,-1],"loss_changes":[2.564879E2,7.6659134E1,1.206629E2,2.4016798E1,2.8153435E1,1.5173065E1,5.12014E1,0E0,0E0,0E0,0E0,0E0,0E0,0E0,0E0],"parents":[2147483647,0,0,1,1,2,2,3,3,4,4,5,5,6,6],"right_children":[2,4,6,8,10,12,14,-1,-1,-1,-1,-1,-1,-1,-1],"split_conditions":[4.64E-1,-2E0,-1.4E0,-4.8E0,2.4E1,2.3E1,8E0,4.5743398E-4,-3.0181676E-3,7.945411E-4,3.3428157E-3,-4.0685623E-3,-6.227564E-3,-3.3307665E-3,-6.1083824E-4],"split_indices":[3,77,77,25,51,80,51,0,0,0,0,0,0,0,0],"split_type":[0,0,0,0,0,0,0,0,0,0,0,0,0,0,0],"sum_hessian":[6.7980347E3,2.575637E3,4.222398E3,8.032231E2,1.7724138E3,1.3701141E3,2.8522837E3,3.5848544E2,4.4473767E2,7.5794275E2,1.01447107E3,5.6007544E2,8.100387E2,1.1809318E3,1.6713519E3],"tree_param":{"num_deleted":"0","num_feature":"106","num_nodes":"15","size_leaf_vector":"1"}},{"base_weights":[1.3936046E-1,-1.093159E-1,2.910415E-1,1.4683363E-1,-2.2541519E-1,5.3486186E-1,1.7377427E-1,-4.574342E-4,3.0181676E-3,-7.94541E-4,-3.3428157E-3,4.0685628E-3,6.2275645E-3,3.3307655E-3,6.108373E-4],"categories":[],"categories_nodes":[],"categories_segments":[],"categories_sizes":[],"default_left":[0,0,0,0,0,0,0,0,0,0,0,0,0,0,0],"id":15,"left_children":[1,3,5,7,9,11,13,-1,-1,-1,-1,-1,-1,-1,-1],"loss_changes":[2.564879E2,7.665912E1,1.20662994E2,2.4016806E1,2.8153442E1,1.5173065E1,5.120141E1,0E0,0E0,0E0,0E0,0E0,0E0,0E0,0E0],"parents":[2147483647,0,0,1,1,2,2,3,3,4,4,5,5,6,6],"right_children":[2,4,6,8,10,12,14,-1,-1,-1,-1,-1,-1,-1,-1],"split_conditions":[4.64E-1,-2E0,-1.4E0,-4.8E0,2.4E1,2.3E1,8E0,-4.574342E-4,3.0181676E-3,-7.94541E-4,-3.3428157E-3,4.0685628E-3,6.2275645E-3,3.3307655E-3,6.108373E-4],"split_indices":[3,77,77,25,51,80,51,0,0,0,0,0,0,0,0],"split_type":[0,0,0,0,0,0,0,0,0,0,0,0,0,0,0],"sum_hessian":[6.7980347E3,2.575637E3,4.222398E3,8.032231E2,1.7724138E3,1.3701141E3,2.8522837E3,3.5848544E2,4.4473767E2,7.579427E2,1.01447107E3,5.6007544E2,8.100387E2,1.1809318E3,1.6713519E3],"tree_param":{"num_deleted":"0","num_feature":"106","num_nodes":"15","size_leaf_vector":"1"}},{"base_weights":[-1.3798986E-1,-2.6412725E-1,1.5539306E-1,-1.0629672E-1,-4.4236332E-1,-1.1987105E-1,2.626111E-1,-2.5185687E-3,2.686002E-4,-3.4542654E-3,-5.736063E-3,4.5660583E-4,-2.9638382E-3,3.2823805E-3,6.838773E-4],"categories":[],"categories_nodes":[],"categories_segments":[],"categories_sizes":[],"default_left":[0,0,0,0,0,0,0,0,0,0,0,0,0,0,0],"id":16,"left_children":[1,3,5,7,9,11,13,-1,-1,-1,-1,-1,-1,-1,-1],"loss_changes":[2.5161191E2,1.3369995E2,6.0374027E1,4.8905746E1,2.8205017E1,1.6779942E1,1.8737053E1,0E0,0E0,0E0,0E0,0E0,0E0,0E0,0E0],"parents":[2147483647,0,0,1,1,2,2,3,3,4,4,5,5,6,6],"right_children":[2,4,6,8,10,12,14,-1,-1,-1,-1,-1,-1,-1,-1],"split_conditions":[2E1,1.4E1,-2.4E0,1E1,2.3E1,-4.8E0,-2.7E0,-2.5185687E-3,2.686002E-4,-3.4542654E-3,-5.736063E-3,4.5660583E-4,-2.9638382E-3,3.2823805E-3,6.838773E-4],"split_indices":[28,80,77,51,80,25,25,0,0,0,0,0,0,0,0],"split_type":[0,0,0,0,0,0,0,0,0,0,0,0,0,0,0],"sum_hessian":[6.797008E3,4.7534175E3,2.0435902E3,2.521866E3,2.2315515E3,5.728295E2,1.4707607E3,1.2043933E3,1.3174727E3,1.2856188E3,9.459327E2,2.959925E2,2.76837E2,1.0987943E3,3.7196643E2],"tree_param":{"num_deleted":"0","num_feature":"106","num_nodes":"15","size_leaf_vector":"1"}},{"base_weights":[1.3798983E-1,2.6412722E-1,-1.5539308E-1,1.0629664E-1,4.4236335E-1,1.19871035E-1,-2.626111E-1,2.518568E-3,-2.6860106E-4,3.4542659E-3,5.7360637E-3,-4.566067E-4,2.9638389E-3,-3.2823805E-3,-6.838776E-4],"categories":[],"categories_nodes":[],"categories_segments":[],"categories_sizes":[],"default_left":[0,0,0,0,0,0,0,0,0,0,0,0,0,0,0],"id":17,"left_children":[1,3,5,7,9,11,13,-1,-1,-1,-1,-1,-1,-1,-1],"loss_changes":[2.5161188E2,1.3370001E2,6.0374023E1,4.8905758E1,2.8205017E1,1.6779953E1,1.8737045E1,0E0,0E0,0E0,0E0,0E0,0E0,0E0,0E0],"parents":[2147483647,0,0,1,1,2,2,3,3,4,4,5,5,6,6],"right_children":[2,4,6,8,10,12,14,-1,-1,-1,-1,-1,-1,-1,-1],"split_conditions":[2E1,1.4E1,-2.4E0,1E1,2.3E1,-4.8E0,-2.7E0,2.518568E-3,-2.6860106E-4,3.4542659E-3,5.7360637E-3,-4.566067E-4,2.9638389E-3,-3.2823805E-3,-6.838776E-4],"split_indices":[28,80,77,51,80,25,25,0,0,0,0,0,0,0,0],"split_type":[0,0,0,0,0,0,0,0,0,0,0,0,0,0,0],"sum_hessian":[6.797008E3,4.7534175E3,2.0435902E3,2.521866E3,2.2315515E3,5.7282947E2,1.4707607E3,1.2043933E3,1.3174727E3,1.2856188E3,9.459327E2,2.959925E2,2.76837E2,1.0987943E3,3.7196643E2],"tree_param":{"num_deleted":"0","num_feature":"106","num_nodes":"15","size_leaf_vector":"1"}},{"base_weights":[-1.3663463E-1,1.0742179E-1,-2.8552464E-1,-1.4375298E-1,2.2126634E-1,-5.253225E-1,-1.7027415E-1,4.4921789E-4,-2.95646E-3,7.813586E-4,3.2805204E-3,-3.998276E-3,-6.115522E-3,-3.2707853E-3,-5.937928E-4],"categories":[],"categories_nodes":[],"categories_segments":[],"categories_sizes":[],"default_left":[0,0,0,0,0,0,0,0,0,0,0,0,0,0,0],"id":18,"left_children":[1,3,5,7,9,11,13,-1,-1,-1,-1,-1,-1,-1,-1],"loss_changes":[2.4701222E2,7.369518E1,1.1658658E2,2.3056282E1,2.7074112E1,1.4580017E1,4.9587967E1,0E0,0E0,0E0,0E0,0E0,0E0,0E0,0E0],"parents":[2147483647,0,0,1,1,2,2,3,3,4,4,5,5,6,6],"right_children":[2,4,6,8,10,12,14,-1,-1,-1,-1,-1,-1,-1,-1],"split_conditions":[4.64E-1,-2E0,-1.4E0,-4.8E0,2.4E1,2.3E1,8E0,4.4921789E-4,-2.95646E-3,7.813586E-4,3.2805204E-3,-3.998276E-3,-6.115522E-3,-3.2707853E-3,-5.937928E-4],"split_indices":[3,77,77,25,51,80,51,0,0,0,0,0,0,0,0],"split_type":[0,0,0,0,0,0,0,0,0,0,0,0,0,0,0],"sum_hessian":[6.795865E3,2.575104E3,4.220761E3,8.0305786E2,1.7720463E3,1.3689254E3,2.8518357E3,3.5847742E2,4.445804E2,7.579106E2,1.0141356E3,5.5982184E2,8.091036E2,1.1805702E3,1.6712655E3],"tree_param":{"num_deleted":"0","num_feature":"106","num_nodes":"15","size_leaf_vector":"1"}},{"base_weights":[1.3663465E-1,-1.0742178E-1,2.8552467E-1,1.43753E-1,-2.2126631E-1,5.2532256E-1,1.7027418E-1,-4.492179E-4,2.9564607E-3,-7.813587E-4,-3.2805197E-3,3.998277E-3,6.115522E-3,3.2707853E-3,5.9379323E-4],"categories":[],"categories_nodes":[],"categories_segments":[],"categories_sizes":[],"default_left":[0,0,0,0,0,0,0,0,0,0,0,0,0,0,0],"id":19,"left_children":[1,3,5,7,9,11,13,-1,-1,-1,-1,-1,-1,-1,-1],"loss_changes":[2.470122E2,7.369519E1,1.1658661E2,2.3056288E1,2.7074112E1,1.4579956E1,4.958796E1,0E0,0E0,0E0,0E0,0E0,0E0,0E0,0E0],"parents":[2147483647,0,0,1,1,2,2,3,3,4,4,5,5,6,6],"right_children":[2,4,6,8,10,12,14,-1,-1,-1,-1,-1,-1,-1,-1],"split_conditions":[4.64E-1,-2E0,-1.4E0,-4.8E0,2.4E1,2.3E1,8E0,-4.492179E-4,2.9564607E-3,-7.813587E-4,-3.2805197E-3,3.998277E-3,6.115522E-3,3.2707853E-3,5.9379323E-4],"split_indices":[3,77,77,25,51,80,51,0,0,0,0,0,0,0,0],"split_type":[0,0,0,0,0,0,0,0,0,0,0,0,0,0,0],"sum_hessian":[6.795865E3,2.575104E3,4.220761E3,8.0305786E2,1.7720463E3,1.3689254E3,2.8518357E3,3.5847742E2,4.445804E2,7.579106E2,1.0141356E3,5.5982184E2,8.091035E2,1.1805703E3,1.6712655E3],"tree_param":{"num_deleted":"0","num_feature":"106","num_nodes":"15","size_leaf_vector":"1"}},{"base_weights":[-1.3529566E-1,-2.5907674E-1,1.5255925E-1,-1.0380331E-1,-4.3452626E-1,-1.17455974E-1,2.577438E-1,-2.4670206E-3,2.688481E-4,-3.3967867E-3,-5.6304536E-3,4.4758286E-4,-2.9048626E-3,3.9996267E-3,1.7034118E-3],"categories":[],"categories_nodes":[],"categories_segments":[],"categories_sizes":[],"default_left":[0,0,0,0,0,0,0,0,0,0,0,0,0,0,0],"id":20,"left_children":[1,3,5,7,9,11,13,-1,-1,-1,-1,-1,-1,-1,-1],"loss_changes":[2.421734E2,1.294255E2,5.8085655E1,4.7115265E1,2.7003601E1,1.6116608E1,1.8221375E1,0E0,0E0,0E0,0E0,0E0,0E0,0E0,0E0],"parents":[2147483647,0,0,1,1,2,2,3,3,4,4,5,5,6,6],"right_children":[2,4,6,8,10,12,14,-1,-1,-1,-1,-1,-1,-1,-1],"split_conditions":[2E1,1.4E1,-2.4E0,1E1,2.3E1,-4.8E0,-6.4E0,-2.4670206E-3,2.688481E-4,-3.3967867E-3,-5.6304536E-3,4.4758286E-4,-2.9048626E-3,3.9996267E-3,1.7034118E-3],"split_indices":[28,80,77,51,80,25,25,0,0,0,0,0,0,0,0],"split_type":[0,0,0,0,0,0,0,0,0,0,0,0,0,0,0],"sum_hessian":[6.7945977E3,4.751497E3,2.0431007E3,2.521528E3,2.229969E3,5.7273584E2,1.4703649E3,1.20407E3,1.3174581E3,1.2851595E3,9.448096E2,2.9598965E2,2.767462E2,5.5831525E2,9.120497E2],"tree_param":{"num_deleted":"0","num_feature":"106","num_nodes":"15","size_leaf_vector":"1"}},{"base_weights":[1.3529567E-1,2.5907674E-1,-1.5255928E-1,1.03803314E-1,4.345263E-1,1.17455944E-1,-2.577438E-1,2.4670206E-3,-2.6884786E-4,3.396787E-3,5.6304536E-3,-4.4758286E-4,2.9048617E-3,-3.9996267E-3,-1.7034119E-3],"categories":[],"categories_nodes":[],"categories_segments":[],"categories_sizes":[],"default_left":[0,0,0,0,0,0,0,0,0,0,0,0,0,0,0],"id":21,"left_children":[1,3,5,7,9,11,13,-1,-1,-1,-1,-1,-1,-1,-1],"loss_changes":[2.4217345E2,1.294255E2,5.808564E1,4.711527E1,2.7003632E1,1.6116602E1,1.8221397E1,0E0,0E0,0E0,0E0,0E0,0E0,0E0,0E0],"parents":[2147483647,0,0,1,1,2,2,3,3,4,4,5,5,6,6],"right_children":[2,4,6,8,10,12,14,-1,-1,-1,-1,-1,-1,-1,-1],"split_conditions":[2E1,1.4E1,-2.4E0,1E1,2.3E1,-4.8E0,-6.4E0,2.4670206E-3,-2.6884786E-4,3.396787E-3,5.6304536E-3,-4.4758286E-4,2.9048617E-3,-3.9996267E-3,-1.7034119E-3],"split_indices":[28,80,77,51,80,25,25,0,0,0,0,0,0,0,0],"split_type":[0,0,0,0,0,0,0,0,0,0,0,0,0,0,0],"sum_hessian":[6.7945977E3,4.751497E3,2.0431007E3,2.521528E3,2.229969E3,5.7273584E2,1.470365E3,1.2040698E3,1.3174583E3,1.2851595E3,9.448096E2,2.9598965E2,2.767462E2,5.5831525E2,9.120497E2],"tree_param":{"num_deleted":"0","num_feature":"106","num_nodes":"15","size_leaf_vector":"1"}},{"base_weights":[-1.339712E-1,1.0557179E-1,-2.801402E-1,-1.407428E-1,2.172133E-1,-5.1605344E-1,-1.6685504E-1,4.4102155E-4,-2.8961236E-3,7.6652877E-4,3.2211824E-3,-3.929583E-3,-6.007058E-3,-3.2121392E-3,-5.7723996E-4],"categories":[],"categories_nodes":[],"categories_segments":[],"categories_sizes":[],"default_left":[0,0,0,0,0,0,0,0,0,0,0,0,0,0,0],"id":22,"left_children":[1,3,5,7,9,11,13,-1,-1,-1,-1,-1,-1,-1,-1],"loss_changes":[2.3792108E2,7.085299E1,1.1268921E2,2.2133133E1,2.611319E1,1.4023865E1,4.802928E1,0E0,0E0,0E0,0E0,0E0,0E0,0E0,0E0],"parents":[2147483647,0,0,1,1,2,2,3,3,4,4,5,5,6,6],"right_children":[2,4,6,8,10,12,14,-1,-1,-1,-1,-1,-1,-1,-1],"split_conditions":[4.64E-1,-2E0,-1.4E0,-4.8E0,2.4E1,2.3E1,8E0,4.4102155E-4,-2.8961236E-3,7.6652877E-4,3.2211824E-3,-3.929583E-3,-6.007058E-3,-3.2121392E-3,-5.7723996E-4],"split_indices":[3,77,77,25,51,80,51,0,0,0,0,0,0,0,0],"split_type":[0,0,0,0,0,0,0,0,0,0,0,0,0,0,0],"sum_hessian":[6.793229E3,2.5744602E3,4.218769E3,8.0285693E2,1.7716031E3,1.367478E3,2.8512908E3,3.5846725E2,4.443897E2,7.578727E2,1.0137305E3,5.5951495E2,8.0796313E2,1.1801295E3,1.6711614E3],"tree_param":{"num_deleted":"0","num_feature":"106","num_nodes":"15","size_leaf_vector":"1"}},{"base_weights":[1.339712E-1,-1.0557176E-1,2.801402E-1,1.4074287E-1,-2.172133E-1,5.160535E-1,1.6685502E-1,-4.4102082E-4,2.896124E-3,-7.6652865E-4,-3.2211824E-3,3.9295824E-3,6.007059E-3,3.2121392E-3,5.772397E-4],"categories":[],"categories_nodes":[],"categories_segments":[],"categories_sizes":[],"default_left":[0,0,0,0,0,0,0,0,0,0,0,0,0,0,0],"id":23,"left_children":[1,3,5,7,9,11,13,-1,-1,-1,-1,-1,-1,-1,-1],"loss_changes":[2.3792104E2,7.085301E1,1.1268927E2,2.2133133E1,2.6113197E1,1.4023895E1,4.8029297E1,0E0,0E0,0E0,0E0,0E0,0E0,0E0,0E0],"parents":[2147483647,0,0,1,1,2,2,3,3,4,4,5,5,6,6],"right_children":[2,4,6,8,10,12,14,-1,-1,-1,-1,-1,-1,-1,-1],"split_conditions":[4.64E-1,-2E0,-1.4E0,-4.8E0,2.4E1,2.3E1,8E0,-4.4102082E-4,2.896124E-3,-7.6652865E-4,-3.2211824E-3,3.9295824E-3,6.007059E-3,3.2121392E-3,5.772397E-4],"split_indices":[3,77,77,25,51,80,51,0,0,0,0,0,0,0,0],"split_type":[0,0,0,0,0,0,0,0,0,0,0,0,0,0,0],"sum_hessian":[6.793229E3,2.5744602E3,4.218769E3,8.0285693E2,1.7716033E3,1.367478E3,2.851291E3,3.5846725E2,4.443897E2,7.578727E2,1.0137306E3,5.5951495E2,8.079631E2,1.1801295E3,1.6711614E3],"tree_param":{"num_deleted":"0","num_feature":"106","num_nodes":"15","size_leaf_vector":"1"}},{"base_weights":[-1.3266279E-1,1.0453072E-1,-2.7741823E-1,-1.55137E-1,2.0839414E-1,-4.1545543E-1,-8.686489E-2,3.994661E-4,-3.1063764E-3,7.248705E-4,3.0954268E-3,-3.296593E-3,-5.772787E-3,-2.1320502E-3,5.2058394E-4],"categories":[],"categories_nodes":[],"categories_segments":[],"categories_sizes":[],"default_left":[0,0,0,0,0,0,0,0,0,0,0,0,0,0,0],"id":24,"left_children":[1,3,5,7,9,11,13,-1,-1,-1,-1,-1,-1,-1,-1],"loss_changes":[2.33258E2,6.948316E1,1.1092816E2,2.23486E1,2.5269127E1,3.377176E1,3.113813E1,0E0,0E0,0E0,0E0,0E0,0E0,0E0,0E0],"parents":[2147483647,0,0,1,1,2,2,3,3,4,4,5,5,6,6],"right_children":[2,4,6,8,10,12,14,-1,-1,-1,-1,-1,-1,-1,-1],"split_conditions":[4.64E-1,-2.4E0,1.6E0,-4.8E0,2.4E1,2.3E1,1E1,3.994661E-4,-3.1063764E-3,7.248705E-4,3.0954268E-3,-3.296593E-3,-5.772787E-3,-2.1320502E-3,5.2058394E-4],"split_indices":[3,77,77,25,51,80,51,0,0,0,0,0,0,0,0],"split_type":[0,0,0,0,0,0,0,0,0,0,0,0,0,0,0],"sum_hessian":[6.791737E3,2.5741165E3,4.21762E3,7.353022E2,1.8388142E3,2.4451606E3,1.7724595E3,3.264708E2,4.0883136E2,7.8533057E2,1.0534838E3,1.5999368E3,8.4522394E2,9.2798926E2,8.444703E2],"tree_param":{"num_deleted":"0","num_feature":"106","num_nodes":"15","size_leaf_vector":"1"}},{"base_weights":[1.3266279E-1,-1.045307E-1,2.7741823E-1,1.55137E-1,-2.083941E-1,4.1545543E-1,8.68649E-2,-3.994661E-4,3.1063764E-3,-7.248702E-4,-3.0954261E-3,3.296593E-3,5.7727867E-3,2.1320505E-3,-5.205839E-4],"categories":[],"categories_nodes":[],"categories_segments":[],"categories_sizes":[],"default_left":[0,0,0,0,0,0,0,0,0,0,0,0,0,0,0],"id":25,"left_children":[1,3,5,7,9,11,13,-1,-1,-1,-1,-1,-1,-1,-1],"loss_changes":[2.3325795E2,6.948314E1,1.1092816E2,2.2348602E1,2.5269127E1,3.3771698E1,3.1138134E1,0E0,0E0,0E0,0E0,0E0,0E0,0E0,0E0],"parents":[2147483647,0,0,1,1,2,2,3,3,4,4,5,5,6,6],"right_children":[2,4,6,8,10,12,14,-1,-1,-1,-1,-1,-1,-1,-1],"split_conditions":[4.64E-1,-2.4E0,1.6E0,-4.8E0,2.4E1,2.3E1,1E1,-3.994661E-4,3.1063764E-3,-7.248702E-4,-3.0954261E-3,3.296593E-3,5.7727867E-3,2.1320505E-3,-5.205839E-4],"split_indices":[3,77,77,25,51,80,51,0,0,0,0,0,0,0,0],"split_type":[0,0,0,0,0,0,0,0,0,0,0,0,0,0,0],"sum_hessian":[6.791737E3,2.5741165E3,4.21762E3,7.353022E2,1.8388142E3,2.4451606E3,1.7724595E3,3.264708E2,4.0883136E2,7.8533057E2,1.0534836E3,1.5999368E3,8.4522394E2,9.2798926E2,8.444703E2],"tree_param":{"num_deleted":"0","num_feature":"106","num_nodes":"15","size_leaf_vector":"1"}},{"base_weights":[-1.3136831E-1,-2.429468E-1,1.7071764E-1,-6.8820775E-2,-3.924104E-1,2.1563016E-2,3.346972E-1,-1.8504716E-3,9.6336537E-4,-2.817237E-3,-5.0545656E-3,1.3284743E-3,-1.4618101E-3,2.2250772E-3,4.2570685E-3],"categories":[],"categories_nodes":[],"categories_segments":[],"categories_sizes":[],"default_left":[0,0,0,0,0,0,0,0,0,0,0,0,0,0,0],"id":26,"left_children":[1,3,5,7,9,11,13,-1,-1,-1,-1,-1,-1,-1,-1],"loss_changes":[2.2894653E2,1.290539E2,4.4809742E1,4.401615E1,3.3250122E1,1.7951887E1,8.816292E0,0E0,0E0,0E0,0E0,0E0,0E0,0E0,0E0],"parents":[2147483647,0,0,1,1,2,2,3,3,4,4,5,5,6,6],"right_children":[2,4,6,8,10,12,14,-1,-1,-1,-1,-1,-1,-1,-1],"split_conditions":[2.2E1,1.2E1,5.17E-1,1.3E1,2.2E1,-4.7E0,2.6E1,-1.8504716E-3,9.6336537E-4,-2.817237E-3,-5.0545656E-3,1.3284743E-3,-1.4618101E-3,2.2250772E-3,4.2570685E-3],"split_indices":[29,80,55,51,103,25,2,0,0,0,0,0,0,0,0],"split_type":[0,0,0,0,0,0,0,0,0,0,0,0,0,0,0],"sum_hessian":[6.790167E3,4.958785E3,1.8313816E3,2.2911E3,2.6676853E3,9.596355E2,8.7174603E2,1.3446836E3,9.464165E2,1.3496737E3,1.3180115E3,5.770309E2,3.8260464E2,3.9198416E2,4.797619E2],"tree_param":{"num_deleted":"0","num_feature":"106","num_nodes":"15","size_leaf_vector":"1"}},{"base_weights":[1.3136831E-1,2.429468E-1,-1.7071764E-1,6.882078E-2,3.924104E-1,-2.1563042E-2,-3.346972E-1,1.8504716E-3,-9.6336525E-4,2.817237E-3,5.0545656E-3,-1.3284743E-3,1.4618097E-3,-2.225077E-3,-4.2570685E-3],"categories":[],"categories_nodes":[],"categories_segments":[],"categories_sizes":[],"default_left":[0,0,0,0,0,0,0,0,0,0,0,0,0,0,0],"id":27,"left_children":[1,3,5,7,9,11,13,-1,-1,-1,-1,-1,-1,-1,-1],"loss_changes":[2.2894653E2,1.290539E2,4.4809734E1,4.4016148E1,3.3250122E1,1.7951883E1,8.816292E0,0E0,0E0,0E0,0E0,0E0,0E0,0E0,0E0],"parents":[2147483647,0,0,1,1,2,2,3,3,4,4,5,5,6,6],"right_children":[2,4,6,8,10,12,14,-1,-1,-1,-1,-1,-1,-1,-1],"split_conditions":[2.2E1,1.2E1,5.17E-1,1.3E1,2.2E1,-4.7E0,2.6E1,1.8504716E-3,-9.6336525E-4,2.817237E-3,5.0545656E-3,-1.3284743E-3,1.4618097E-3,-2.225077E-3,-4.2570685E-3],"split_indices":[29,80,55,51,103,25,2,0,0,0,0,0,0,0,0],"split_type":[0,0,0,0,0,0,0,0,0,0,0,0,0,0,0],"sum_hessian":[6.790167E3,4.958785E3,1.8313816E3,2.2911E3,2.6676853E3,9.5963556E2,8.7174603E2,1.3446836E3,9.464165E2,1.3496737E3,1.3180115E3,5.770309E2,3.8260464E2,3.9198416E2,4.797619E2],"tree_param":{"num_deleted":"0","num_feature":"106","num_nodes":"15","size_leaf_vector":"1"}},{"base_weights":[-1.3008527E-1,-3.1600633E-1,4.812484E-2,-1.6788173E-1,-4.6679646E-1,-2.1615371E-1,1.6496561E-1,-2.4427404E-3,1.6713103E-4,-3.7294503E-3,-6.0943607E-3,2.9128604E-4,-3.4782656E-3,5.8504305E-4,3.0405286E-3],"categories":[],"categories_nodes":[],"categories_segments":[],"categories_sizes":[],"default_left":[0,0,0,0,0,0,0,0,0,0,0,0,0,0,0],"id":28,"left_children":[1,3,5,7,9,11,13,-1,-1,-1,-1,-1,-1,-1,-1],"loss_changes":[2.2497516E2,7.414426E1,1.0710869E2,2.3665207E1,2.180954E1,3.4357742E1,3.5595016E1,0E0,0E0,0E0,0E0,0E0,0E0,0E0,0E0],"parents":[2147483647,0,0,1,1,2,2,3,3,4,4,5,5,6,6],"right_children":[2,4,6,8,10,12,14,-1,-1,-1,-1,-1,-1,-1,-1],"split_conditions":[1.5E1,1.3E1,-2E0,6E0,2.3E1,-4.8E0,2.4E1,-2.4427404E-3,1.6713103E-4,-3.7294503E-3,-6.0943607E-3,2.9128604E-4,-3.4782656E-3,5.8504305E-4,3.0405286E-3],"split_indices":[51,80,77,77,80,25,51,0,0,0,0,0,0,0,0],"split_type":[0,0,0,0,0,0,0,0,0,0,0,0,0,0,0],"sum_hessian":[6.7886025E3,3.3220442E3,3.466558E3,1.6769001E3,1.645144E3,1.0624915E3,2.4040667E3,1.185834E3,4.9106616E2,9.944492E2,6.506948E2,3.7140714E2,6.9108435E2,1.3625516E3,1.041515E3],"tree_param":{"num_deleted":"0","num_feature":"106","num_nodes":"15","size_leaf_vector":"1"}},{"base_weights":[1.3008529E-1,3.1600636E-1,-4.8124827E-2,1.6788176E-1,4.667965E-1,2.1615373E-1,-1.6496561E-1,2.4427406E-3,-1.6713065E-4,3.7294503E-3,6.094362E-3,-2.9128595E-4,3.4782658E-3,-5.8504316E-4,-3.0405282E-3],"categories":[],"categories_nodes":[],"categories_segments":[],"categories_sizes":[],"default_left":[0,0,0,0,0,0,0,0,0,0,0,0,0,0,0],"id":29,"left_children":[1,3,5,7,9,11,13,-1,-1,-1,-1,-1,-1,-1,-1],"loss_changes":[2.2497516E2,7.414426E1,1.07108696E2,2.36652E1,2.180957E1,3.4357742E1,3.559501E1,0E0,0E0,0E0,0E0,0E0,0E0,0E0,0E0],"parents":[2147483647,0,0,1,1,2,2,3,3,4,4,5,5,6,6],"right_children":[2,4,6,8,10,12,14,-1,-1,-1,-1,-1,-1,-1,-1],"split_conditions":[1.5E1,1.3E1,-2E0,6E0,2.3E1,-4.8E0,2.4E1,2.4427406E-3,-1.6713065E-4,3.7294503E-3,6.094362E-3,-2.9128595E-4,3.4782658E-3,-5.8504316E-4,-3.0405282E-3],"split_indices":[51,80,77,77,80,25,51,0,0,0,0,0,0,0,0],"split_type":[0,0,0,0,0,0,0,0,0,0,0,0,0,0,0],"sum_hessian":[6.7886025E3,3.3220442E3,3.466558E3,1.6769001E3,1.645144E3,1.0624915E3,2.4040667E3,1.185834E3,4.9106616E2,9.944492E2,6.5069476E2,3.7140714E2,6.9108435E2,1.3625518E3,1.041515E3],"tree_param":{"num_deleted":"0","num_feature":"106","num_nodes":"15","size_leaf_vector":"1"}},{"base_weights":[-1.2881891E-1,-2.4720934E-1,1.463552E-1,-9.822359E-2,-4.158774E-1,-1.0183103E-2,3.1351763E-1,-2.3555136E-3,2.727948E-4,-3.253731E-3,-5.388249E-3,1.3309985E-3,-1.7319733E-3,4.50082E-3,2.2705186E-3],"categories":[],"categories_nodes":[],"categories_segments":[],"categories_sizes":[],"default_left":[0,0,0,0,0,0,0,0,0,0,0,0,0,0,0],"id":30,"left_children":[1,3,5,7,9,11,13,-1,-1,-1,-1,-1,-1,-1,-1],"loss_changes":[2.2117212E2,1.1923117E2,5.3450855E1,4.346525E1,2.4592041E1,2.4682487E1,1.1561653E1,0E0,0E0,0E0,0E0,0E0,0E0,0E0,0E0],"parents":[2147483647,0,0,1,1,2,2,3,3,4,4,5,5,6,6],"right_children":[2,4,6,8,10,12,14,-1,-1,-1,-1,-1,-1,-1,-1],"split_conditions":[2E1,1.4E1,5.14E-1,1E1,2.3E1,-4.8E0,-6.2E0,-2.3555136E-3,2.727948E-4,-3.253731E-3,-5.388249E-3,1.3309985E-3,-1.7319733E-3,4.50082E-3,2.2705186E-3],"split_indices":[28,80,55,51,80,25,25,0,0,0,0,0,0,0,0],"split_type":[0,0,0,0,0,0,0,0,0,0,0,0,0,0,0],"sum_hessian":[6.7868975E3,4.745363E3,2.0415348E3,2.5205366E3,2.2248262E3,1.0547548E3,9.8677997E2,1.2031504E3,1.3173861E3,1.2835929E3,9.412333E2,5.6144806E2,4.9330676E2,3.8093094E2,6.05849E2],"tree_param":{"num_deleted":"0","num_feature":"106","num_nodes":"15","size_leaf_vector":"1"}},{"base_weights":[1.2881893E-1,2.4720936E-1,-1.463552E-1,9.82236E-2,4.1587743E-1,1.018311E-2,-3.1351763E-1,2.3555136E-3,-2.7279474E-4,3.2537316E-3,5.388249E-3,-1.3309985E-3,1.7319733E-3,-4.50082E-3,-2.2705186E-3],"categories":[],"categories_nodes":[],"categories_segments":[],"categories_sizes":[],"default_left":[0,0,0,0,0,0,0,0,0,0,0,0,0,0,0],"id":31,"left_children":[1,3,5,7,9,11,13,-1,-1,-1,-1,-1,-1,-1,-1],"loss_changes":[2.2117216E2,1.1923117E2,5.3450855E1,4.346525E1,2.4592041E1,2.4682486E1,1.1561653E1,0E0,0E0,0E0,0E0,0E0,0E0,0E0,0E0],"parents":[2147483647,0,0,1,1,2,2,3,3,4,4,5,5,6,6],"right_children":[2,4,6,8,10,12,14,-1,-1,-1,-1,-1,-1,-1,-1],"split_conditions":[2E1,1.4E1,5.14E-1,1E1,2.3E1,-4.8E0,-6.2E0,2.3555136E-3,-2.7279474E-4,3.2537316E-3,5.388249E-3,-1.3309985E-3,1.7319733E-3,-4.50082E-3,-2.2705186E-3],"split_indices":[28,80,55,51,80,25,25,0,0,0,0,0,0,0,0],"split_type":[0,0,0,0,0,0,0,0,0,0,0,0,0,0,0],"sum_hessian":[6.7868975E3,4.745363E3,2.0415348E3,2.5205364E3,2.2248262E3,1.0547549E3,9.8677997E2,1.2031504E3,1.3173861E3,1.2835929E3,9.412333E2,5.6144806E2,4.933068E2,3.8093097E2,6.05849E2],"tree_param":{"num_deleted":"0","num_feature":"106","num_nodes":"15","size_leaf_vector":"1"}},{"base_weights":[-1.2756628E-1,1.01420425E-1,-2.673921E-1,-1.4943412E-1,2.0174912E-1,-6.358589E-2,-3.8922125E-1,3.7489992E-4,-2.985946E-3,7.092131E-4,2.991962E-3,-1.4346534E-3,1.406948E-3,-3.0953921E-3,-5.581905E-3],"categories":[],"categories_nodes":[],"categories_segments":[],"categories_sizes":[],"default_left":[0,0,0,0,0,0,0,0,0,0,0,0,0,0,0],"id":32,"left_children":[1,3,5,7,9,11,13,-1,-1,-1,-1,-1,-1,-1,-1],"loss_changes":[2.1730492E2,6.479941E1,1.04596375E2,2.0526196E1,2.341996E1,2.5763348E1,3.533081E1,0E0,0E0,0E0,0E0,0E0,0E0,0E0,0E0],"parents":[2147483647,0,0,1,1,2,2,3,3,4,4,5,5,6,6],"right_children":[2,4,6,8,10,12,14,-1,-1,-1,-1,-1,-1,-1,-1],"split_conditions":[4.64E-1,-2.4E0,1.1E1,-4.8E0,2.4E1,1.4E1,2.3E1,3.7489992E-4,-2.985946E-3,7.092131E-4,2.991962E-3,-1.4346534E-3,1.406948E-3,-3.0953921E-3,-5.581905E-3],"split_indices":[3,77,103,25,51,51,80,0,0,0,0,0,0,0,0],"split_type":[0,0,0,0,0,0,0,0,0,0,0,0,0,0,0],"sum_hessian":[6.7850605E3,2.572486E3,4.2125747E3,7.3478754E2,1.8376986E3,1.5766094E3,2.635965E3,3.2644437E2,4.0834314E2,7.852233E2,1.0524753E3,1.1336272E3,4.4298218E2,1.7931765E3,8.4278864E2],"tree_param":{"num_deleted":"0","num_feature":"106","num_nodes":"15","size_leaf_vector":"1"}},{"base_weights":[1.275663E-1,-1.014204E-1,2.6739213E-1,1.494342E-1,-2.017491E-1,6.358593E-2,3.8922125E-1,-3.748989E-4,2.9859464E-3,-7.092128E-4,-2.9919625E-3,1.4346536E-3,-1.406947E-3,3.0953926E-3,5.581905E-3],"categories":[],"categories_nodes":[],"categories_segments":[],"categories_sizes":[],"default_left":[0,0,0,0,0,0,0,0,0,0,0,0,0,0,0],"id":33,"left_children":[1,3,5,7,9,11,13,-1,-1,-1,-1,-1,-1,-1,-1],"loss_changes":[2.173049E2,6.479942E1,1.04596344E2,2.0526186E1,2.3419968E1,2.5763332E1,3.533084E1,0E0,0E0,0E0,0E0,0E0,0E0,0E0,0E0],"parents":[2147483647,0,0,1,1,2,2,3,3,4,4,5,5,6,6],"right_children":[2,4,6,8,10,12,14,-1,-1,-1,-1,-1,-1,-1,-1],"split_conditions":[4.64E-1,-2.4E0,1.1E1,-4.8E0,2.4E1,1.4E1,2.3E1,-3.748989E-4,2.9859464E-3,-7.092128E-4,-2.9919625E-3,1.4346536E-3,-1.406947E-3,3.0953926E-3,5.581905E-3],"split_indices":[3,77,103,25,51,51,80,0,0,0,0,0,0,0,0],"split_type":[0,0,0,0,0,0,0,0,0,0,0,0,0,0,0],"sum_hessian":[6.7850605E3,2.572486E3,4.2125747E3,7.3478754E2,1.8376986E3,1.5766094E3,2.635965E3,3.2644437E2,4.0834314E2,7.852233E2,1.0524753E3,1.1336272E3,4.4298218E2,1.7931765E3,8.4278864E2],"tree_param":{"num_deleted":"0","num_feature":"106","num_nodes":"15","size_leaf_vector":"1"}},{"base_weights":[-1.2632796E-1,-3.0765864E-1,4.7399506E-2,-1.6306168E-1,-4.5506954E-1,-2.1021496E-1,1.6123578E-1,-2.3849302E-3,1.9165703E-4,-3.636087E-3,-5.94362E-3,2.7521522E-4,-3.380002E-3,5.812223E-4,2.9604235E-3],"categories":[],"categories_nodes":[],"categories_segments":[],"categories_sizes":[],"default_left":[0,0,0,0,0,0,0,0,0,0,0,0,0,0,0],"id":34,"left_children":[1,3,5,7,9,11,13,-1,-1,-1,-1,-1,-1,-1,-1],"loss_changes":[2.1372934E2,7.068292E1,1.0166487E2,2.3060654E1,2.0718292E1,3.2287445E1,3.3400227E1,0E0,0E0,0E0,0E0,0E0,0E0,0E0,0E0],"parents":[2147483647,0,0,1,1,2,2,3,3,4,4,5,5,6,6],"right_children":[2,4,6,8,10,12,14,-1,-1,-1,-1,-1,-1,-1,-1],"split_conditions":[1.5E1,1.3E1,-2E0,6E0,2.3E1,-4.8E0,2.4E1,-2.3849302E-3,1.9165703E-4,-3.636087E-3,-5.94362E-3,2.7521522E-4,-3.380002E-3,5.812223E-4,2.9604235E-3],"split_indices":[51,80,77,77,80,25,51,0,0,0,0,0,0,0,0],"split_type":[0,0,0,0,0,0,0,0,0,0,0,0,0,0,0],"sum_hessian":[6.783139E3,3.3185654E3,3.4645737E3,1.6763357E3,1.6422297E3,1.0615076E3,2.4030662E3,1.1853586E3,4.9097702E2,9.934989E2,6.4873083E2,3.7137402E2,6.901336E2,1.3623987E3,1.0406676E3],"tree_param":{"num_deleted":"0","num_feature":"106","num_nodes":"15","size_leaf_vector":"1"}},{"base_weights":[1.2632796E-1,3.0765864E-1,-4.739949E-2,1.6306171E-1,4.550695E-1,2.1021497E-1,-1.6123575E-1,2.3849304E-3,-1.9165683E-4,3.6360868E-3,5.9436196E-3,-2.7521525E-4,3.3800022E-3,-5.812223E-4,-2.9604228E-3],"categories":[],"categories_nodes":[],"categories_segments":[],"categories_sizes":[],"default_left":[0,0,0,0,0,0,0,0,0,0,0,0,0,0,0],"id":35,"left_children":[1,3,5,7,9,11,13,-1,-1,-1,-1,-1,-1,-1,-1],"loss_changes":[2.1372931E2,7.068289E1,1.0166486E2,2.3060658E1,2.0718292E1,3.2287453E1,3.3400223E1,0E0,0E0,0E0,0E0,0E0,0E0,0E0,0E0],"parents":[2147483647,0,0,1,1,2,2,3,3,4,4,5,5,6,6],"right_children":[2,4,6,8,10,12,14,-1,-1,-1,-1,-1,-1,-1,-1],"split_conditions":[1.5E1,1.3E1,-2E0,6E0,2.3E1,-4.8E0,2.4E1,2.3849304E-3,-1.9165683E-4,3.6360868E-3,5.9436196E-3,-2.7521525E-4,3.3800022E-3,-5.812223E-4,-2.9604228E-3],"split_indices":[51,80,77,77,80,25,51,0,0,0,0,0,0,0,0],"split_type":[0,0,0,0,0,0,0,0,0,0,0,0,0,0,0],"sum_hessian":[6.783139E3,3.3185654E3,3.464574E3,1.6763356E3,1.6422297E3,1.0615076E3,2.4030662E3,1.1853586E3,4.9097702E2,9.934989E2,6.4873083E2,3.7137402E2,6.901336E2,1.3623987E3,1.0406676E3],"tree_param":{"num_deleted":"0","num_feature":"106","num_nodes":"15","size_leaf_vector":"1"}},{"base_weights":[-1.2510349E-1,-3.0471075E-1,4.6934202E-2,-1.6145012E-1,-4.5084748E-1,-2.0817846E-1,1.5964614E-1,-2.3614771E-3,1.8974295E-4,-3.6012053E-3,-5.891324E-3,-9.065172E-5,-3.5799425E-3,5.754146E-4,2.9317432E-3],"categories":[],"categories_nodes":[],"categories_segments":[],"categories_sizes":[],"default_left":[0,0,0,0,0,0,0,0,0,0,0,0,0,0,0],"id":36,"left_children":[1,3,5,7,9,11,13,-1,-1,-1,-1,-1,-1,-1,-1],"loss_changes":[2.0957748E2,6.939609E1,9.966494E1,2.2607922E1,2.0389435E1,3.168222E1,3.2755486E1,0E0,0E0,0E0,0E0,0E0,0E0,0E0,0E0],"parents":[2147483647,0,0,1,1,2,2,3,3,4,4,5,5,6,6],"right_children":[2,4,6,8,10,12,14,-1,-1,-1,-1,-1,-1,-1,-1],"split_conditions":[1.5E1,1.3E1,-2E0,6E0,2.3E1,-3.7E0,2.4E1,-2.3614771E-3,1.8974295E-4,-3.6012053E-3,-5.891324E-3,-9.065172E-5,-3.5799425E-3,5.754146E-4,2.9317432E-3],"split_indices":[51,80,77,77,80,25,51,0,0,0,0,0,0,0,0],"split_type":[0,0,0,0,0,0,0,0,0,0,0,0,0,0,0],"sum_hessian":[6.781152E3,3.3172124E3,3.4639395E3,1.6761527E3,1.6410598E3,1.0611901E3,2.4027493E3,1.1851708E3,4.9098196E2,9.9310254E2,6.479573E2,4.560867E2,6.051034E2,1.3623986E3,1.0403508E3],"tree_param":{"num_deleted":"0","num_feature":"106","num_nodes":"15","size_leaf_vector":"1"}},{"base_weights":[1.2510349E-1,3.0471075E-1,-4.6934195E-2,1.6145013E-1,4.5084745E-1,2.0817845E-1,-1.5964611E-1,2.3614774E-3,-1.8974274E-4,3.601205E-3,5.891324E-3,9.0651585E-5,3.5799423E-3,-5.7541433E-4,-2.9317432E-3],"categories":[],"categories_nodes":[],"categories_segments":[],"categories_sizes":[],"default_left":[0,0,0,0,0,0,0,0,0,0,0,0,0,0,0],"id":37,"left_children":[1,3,5,7,9,11,13,-1,-1,-1,-1,-1,-1,-1,-1],"loss_changes":[2.0957748E2,6.939612E1,9.966493E1,2.2607922E1,2.0389435E1,3.168222E1,3.2755497E1,0E0,0E0,0E0,0E0,0E0,0E0,0E0,0E0],"parents":[2147483647,0,0,1,1,2,2,3,3,4,4,5,5,6,6],"right_children":[2,4,6,8,10,12,14,-1,-1,-1,-1,-1,-1,-1,-1],"split_conditions":[1.5E1,1.3E1,-2E0,6E0,2.3E1,-3.7E0,2.4E1,2.3614774E-3,-1.8974274E-4,3.601205E-3,5.891324E-3,9.0651585E-5,3.5799423E-3,-5.7541433E-4,-2.9317432E-3],"split_indices":[51,80,77,77,80,25,51,0,0,0,0,0,0,0,0],"split_type":[0,0,0,0,0,0,0,0,0,0,0,0,0,0,0],"sum_hessian":[6.781152E3,3.3172124E3,3.4639395E3,1.6761526E3,1.6410598E3,1.0611902E3,2.4027493E3,1.1851707E3,4.9098193E2,9.9310254E2,6.479573E2,4.560867E2,6.0510345E2,1.3623986E3,1.0403508E3],"tree_param":{"num_deleted":"0","num_feature":"106","num_nodes":"15","size_leaf_vector":"1"}},{"base_weights":[-1.2389259E-1,-2.300463E-1,1.6234918E-1,-8.4759936E-2,-3.9377484E-1,1.4737259E-2,3.248003E-1,-2.278563E-3,3.658738E-4,-2.897284E-3,-5.011174E-3,1.3046713E-3,-1.4574842E-3,4.367958E-3,2.4167297E-3],"categories":[],"categories_nodes":[],"categories_segments":[],"categories_sizes":[],"default_left":[0,0,0,0,0,0,0,0,0,0,0,0,0,0,0],"id":38,"left_children":[1,3,5,7,9,11,13,-1,-1,-1,-1,-1,-1,-1,-1],"loss_changes":[2.0605428E2,1.1762671E2,4.3992805E1,4.553805E1,2.5824951E1,1.7892622E1,8.026054E0,0E0,0E0,0E0,0E0,0E0,0E0,0E0,0E0],"parents":[2147483647,0,0,1,1,2,2,3,3,4,4,5,5,6,6],"right_children":[2,4,6,8,10,12,14,-1,-1,-1,-1,-1,-1,-1,-1],"split_conditions":[2.1E1,1.4E1,5.17E-1,1E1,2.2E1,-4.8E0,-6.2E0,-2.278563E-3,3.658738E-4,-2.897284E-3,-5.011174E-3,1.3046713E-3,-1.4574842E-3,4.367958E-3,2.4167297E-3],"split_indices":[28,80,55,51,80,25,25,0,0,0,0,0,0,0,0],"split_type":[0,0,0,0,0,0,0,0,0,0,0,0,0,0,0],"sum_hessian":[6.7790786E3,4.9452954E3,1.8337831E3,2.6210208E3,2.324275E3,9.6134424E2,8.7243884E2,1.2023253E3,1.4186954E3,1.1821367E3,1.1421381E3,5.5866516E2,4.0267908E2,3.6986877E2,5.0257004E2],"tree_param":{"num_deleted":"0","num_feature":"106","num_nodes":"15","size_leaf_vector":"1"}},{"base_weights":[1.23892576E-1,2.3004629E-1,-1.6234918E-1,8.475992E-2,3.937748E-1,-1.4737241E-2,-3.2480034E-1,2.2785629E-3,-3.65874E-4,2.897284E-3,5.0111734E-3,-1.3046712E-3,1.4574844E-3,-4.3679583E-3,-2.41673E-3],"categories":[],"categories_nodes":[],"categories_segments":[],"categories_sizes":[],"default_left":[0,0,0,0,0,0,0,0,0,0,0,0,0,0,0],"id":39,"left_children":[1,3,5,7,9,11,13,-1,-1,-1,-1,-1,-1,-1,-1],"loss_changes":[2.0605426E2,1.1762671E2,4.3992805E1,4.5538055E1,2.582492E1,1.7892624E1,8.026062E0,0E0,0E0,0E0,0E0,0E0,0E0,0E0,0E0],"parents":[2147483647,0,0,1,1,2,2,3,3,4,4,5,5,6,6],"right_children":[2,4,6,8,10,12,14,-1,-1,-1,-1,-1,-1,-1,-1],"split_conditions":[2.1E1,1.4E1,5.17E-1,1E1,2.2E1,-4.8E0,-6.2E0,2.2785629E-3,-3.65874E-4,2.897284E-3,5.0111734E-3,-1.3046712E-3,1.4574844E-3,-4.3679583E-3,-2.41673E-3],"split_indices":[28,80,55,51,80,25,25,0,0,0,0,0,0,0,0],"split_type":[0,0,0,0,0,0,0,0,0,0,0,0,0,0,0],"sum_hessian":[6.7790786E3,4.9452954E3,1.8337831E3,2.6210208E3,2.324275E3,9.6134424E2,8.7243884E2,1.2023253E3,1.4186954E3,1.1821367E3,1.1421381E3,5.5866516E2,4.0267908E2,3.6986877E2,5.0257004E2],"tree_param":{"num_deleted":"0","num_feature":"106","num_nodes":"15","size_leaf_vector":"1"}},{"base_weights":[-1.2269369E-1,9.845057E-2,-2.578223E-1,-4.6336263E-2,2.6204428E-1,-6.0046416E-2,-3.7626153E-1,1.1872106E-3,-1.8489122E-3,1.2756812E-3,3.371235E-3,-1.3768771E-3,1.3842207E-3,-2.9944915E-3,-5.396622E-3],"categories":[],"categories_nodes":[],"categories_segments":[],"categories_sizes":[],"default_left":[0,0,0,0,0,0,0,0,0,0,0,0,0,0,0],"id":40,"left_children":[1,3,5,7,9,11,13,-1,-1,-1,-1,-1,-1,-1,-1],"loss_changes":[2.0256935E2,6.092076E1,9.853421E1,3.1238869E1,1.2148148E1,2.4321095E1,3.286487E1,0E0,0E0,0E0,0E0,0E0,0E0,0E0,0E0],"parents":[2147483647,0,0,1,1,2,2,3,3,4,4,5,5,6,6],"right_children":[2,4,6,8,10,12,14,-1,-1,-1,-1,-1,-1,-1,-1],"split_conditions":[4.64E-1,5.21E-1,1.1E1,-4.8E0,2.2E1,1.4E1,2.3E1,1.1872106E-3,-1.8489122E-3,1.2756812E-3,3.371235E-3,-1.3768771E-3,1.3842207E-3,-2.9944915E-3,-5.396622E-3],"split_indices":[3,55,103,25,28,51,80,0,0,0,0,0,0,0,0],"split_type":[0,0,0,0,0,0,0,0,0,0,0,0,0,0,0],"sum_hessian":[6.776917E3,2.5704797E3,4.2064375E3,1.3640016E3,1.206478E3,1.5760969E3,2.6303406E3,6.225342E2,7.414674E2,4.3322247E2,7.7325555E2,1.133123E3,4.4297388E2,1.7911691E3,8.391715E2],"tree_param":{"num_deleted":"0","num_feature":"106","num_nodes":"15","size_leaf_vector":"1"}},{"base_weights":[1.2269369E-1,-9.845057E-2,2.578223E-1,4.6336267E-2,-2.6204428E-1,6.004642E-2,3.7626153E-1,-1.1872106E-3,1.8489122E-3,-1.2756814E-3,-3.371235E-3,1.3768772E-3,-1.384221E-3,2.994491E-3,5.396622E-3],"categories":[],"categories_nodes":[],"categories_segments":[],"categories_sizes":[],"default_left":[0,0,0,0,0,0,0,0,0,0,0,0,0,0,0],"id":41,"left_children":[1,3,5,7,9,11,13,-1,-1,-1,-1,-1,-1,-1,-1],"loss_changes":[2.0256935E2,6.092077E1,9.853418E1,3.1238867E1,1.214814E1,2.432111E1,3.28649E1,0E0,0E0,0E0,0E0,0E0,0E0,0E0,0E0],"parents":[2147483647,0,0,1,1,2,2,3,3,4,4,5,5,6,6],"right_children":[2,4,6,8,10,12,14,-1,-1,-1,-1,-1,-1,-1,-1],"split_conditions":[4.64E-1,5.21E-1,1.1E1,-4.8E0,2.2E1,1.4E1,2.3E1,-1.1872106E-3,1.8489122E-3,-1.2756814E-3,-3.371235E-3,1.3768772E-3,-1.384221E-3,2.994491E-3,5.396622E-3],"split_indices":[3,55,103,25,28,51,80,0,0,0,0,0,0,0,0],"split_type":[0,0,0,0,0,0,0,0,0,0,0,0,0,0,0],"sum_hessian":[6.776917E3,2.5704797E3,4.2064375E3,1.3640016E3,1.206478E3,1.5760969E3,2.6303406E3,6.225342E2,7.4146747E2,4.3322244E2,7.7325555E2,1.1331229E3,4.429739E2,1.7911691E3,8.391715E2],"tree_param":{"num_deleted":"0","num_feature":"106","num_nodes":"15","size_leaf_vector":"1"}},{"base_weights":[-1.2150738E-1,-2.967646E-1,4.626235E-2,-1.568591E-1,-4.3972695E-1,-2.0286131E-1,1.5626664E-1,-2.3062585E-3,2.1259076E-4,-3.511219E-3,-5.7510547E-3,-9.648981E-5,-3.48452E-3,5.7058217E-4,2.8610565E-3],"categories":[],"categories_nodes":[],"categories_segments":[],"categories_sizes":[],"default_left":[0,0,0,0,0,0,0,0,0,0,0,0,0,0,0],"id":42,"left_children":[1,3,5,7,9,11,13,-1,-1,-1,-1,-1,-1,-1,-1],"loss_changes":[1.9923907E2,6.621594E1,9.492509E1,2.203254E1,1.9452972E1,2.9844856E1,3.093171E1,0E0,0E0,0E0,0E0,0E0,0E0,0E0,0E0],"parents":[2147483647,0,0,1,1,2,2,3,3,4,4,5,5,6,6],"right_children":[2,4,6,8,10,12,14,-1,-1,-1,-1,-1,-1,-1,-1],"split_conditions":[1.5E1,1.3E1,-2E0,6E0,2.3E1,-3.7E0,2.4E1,-2.3062585E-3,2.1259076E-4,-3.511219E-3,-5.7510547E-3,-9.648981E-5,-3.48452E-3,5.7058217E-4,2.8610565E-3],"split_indices":[51,80,77,77,80,25,51,0,0,0,0,0,0,0,0],"split_type":[0,0,0,0,0,0,0,0,0,0,0,0,0,0,0],"sum_hessian":[6.7747144E3,3.313043E3,3.4616716E3,1.6754827E3,1.6375602E3,1.0600844E3,2.4015874E3,1.1845942E3,4.9088855E2,9.919344E2,6.4562573E2,4.5599844E2,6.040859E2,1.3621923E3,1.0393951E3],"tree_param":{"num_deleted":"0","num_feature":"106","num_nodes":"15","size_leaf_vector":"1"}},{"base_weights":[1.2150737E-1,2.9676458E-1,-4.626235E-2,1.5685911E-1,4.397269E-1,2.0286131E-1,-1.5626666E-1,2.3062585E-3,-2.1259052E-4,3.511219E-3,5.7510533E-3,9.648948E-5,3.4845201E-3,-5.705822E-4,-2.861057E-3],"categories":[],"categories_nodes":[],"categories_segments":[],"categories_sizes":[],"default_left":[0,0,0,0,0,0,0,0,0,0,0,0,0,0,0],"id":43,"left_children":[1,3,5,7,9,11,13,-1,-1,-1,-1,-1,-1,-1,-1],"loss_changes":[1.9923907E2,6.621588E1,9.4925095E1,2.2032543E1,1.9452972E1,2.9844864E1,3.093171E1,0E0,0E0,0E0,0E0,0E0,0E0,0E0,0E0],"parents":[2147483647,0,0,1,1,2,2,3,3,4,4,5,5,6,6],"right_children":[2,4,6,8,10,12,14,-1,-1,-1,-1,-1,-1,-1,-1],"split_conditions":[1.5E1,1.3E1,-2E0,6E0,2.3E1,-3.7E0,2.4E1,2.3062585E-3,-2.1259052E-4,3.511219E-3,5.7510533E-3,9.648948E-5,3.4845201E-3,-5.705822E-4,-2.861057E-3],"split_indices":[51,80,77,77,80,25,51,0,0,0,0,0,0,0,0],"split_type":[0,0,0,0,0,0,0,0,0,0,0,0,0,0,0],"sum_hessian":[6.7747144E3,3.313043E3,3.4616716E3,1.6754827E3,1.6375602E3,1.0600844E3,2.4015874E3,1.1845941E3,4.9088855E2,9.9193445E2,6.4562573E2,4.5599844E2,6.040859E2,1.3621923E3,1.0393951E3],"tree_param":{"num_deleted":"0","num_feature":"106","num_nodes":"15","size_leaf_vector":"1"}},{"base_weights":[-1.2033568E-1,-2.9394317E-1,4.5809176E-2,-1.5531223E-1,-4.3570384E-1,-2.0090301E-1,1.5472934E-1,-2.2836511E-3,2.1046642E-4,-3.4778048E-3,-5.701661E-3,2.5628187E-4,-3.229581E-3,8.9816656E-4,3.4957188E-3],"categories":[],"categories_nodes":[],"categories_segments":[],"categories_sizes":[],"default_left":[0,0,0,0,0,0,0,0,0,0,0,0,0,0,0],"id":44,"left_children":[1,3,5,7,9,11,13,-1,-1,-1,-1,-1,-1,-1,-1],"loss_changes":[1.953853E2,6.502988E1,9.306045E1,2.1600994E1,1.9157104E1,2.9336811E1,3.0351269E1,0E0,0E0,0E0,0E0,0E0,0E0,0E0,0E0],"parents":[2147483647,0,0,1,1,2,2,3,3,4,4,5,5,6,6],"right_children":[2,4,6,8,10,12,14,-1,-1,-1,-1,-1,-1,-1,-1],"split_conditions":[1.5E1,1.3E1,-2E0,6E0,2.3E1,-4.8E0,2.7E1,-2.2836511E-3,2.1046642E-4,-3.4778048E-3,-5.701661E-3,2.5628187E-4,-3.229581E-3,8.9816656E-4,3.4957188E-3],"split_indices":[51,80,77,77,80,25,51,0,0,0,0,0,0,0,0],"split_type":[0,0,0,0,0,0,0,0,0,0,0,0,0,0,0],"sum_hessian":[6.772398E3,3.3114453E3,3.4609526E3,1.6752634E3,1.6361819E3,1.0597336E3,2.401219E3,1.184369E3,4.9089444E2,9.9146216E2,6.447197E2,3.7133508E2,6.8839856E2,1.8022517E3,5.9896735E2],"tree_param":{"num_deleted":"0","num_feature":"106","num_nodes":"15","size_leaf_vector":"1"}},{"base_weights":[1.2033569E-1,2.9394317E-1,-4.580916E-2,1.5531224E-1,4.3570384E-1,2.0090303E-1,-1.5472934E-1,2.2836514E-3,-2.1046623E-4,3.4778046E-3,5.701661E-3,-2.5628187E-4,3.2295813E-3,-8.9816644E-4,-3.495719E-3],"categories":[],"categories_nodes":[],"categories_segments":[],"categories_sizes":[],"default_left":[0,0,0,0,0,0,0,0,0,0,0,0,0,0,0],"id":45,"left_children":[1,3,5,7,9,11,13,-1,-1,-1,-1,-1,-1,-1,-1],"loss_changes":[1.9538528E2,6.502991E1,9.306045E1,2.160099E1,1.9157074E1,2.9336811E1,3.0351284E1,0E0,0E0,0E0,0E0,0E0,0E0,0E0,0E0],"parents":[2147483647,0,0,1,1,2,2,3,3,4,4,5,5,6,6],"right_children":[2,4,6,8,10,12,14,-1,-1,-1,-1,-1,-1,-1,-1],"split_conditions":[1.5E1,1.3E1,-2E0,6E0,2.3E1,-4.8E0,2.7E1,2.2836514E-3,-2.1046623E-4,3.4778046E-3,5.701661E-3,-2.5628187E-4,3.2295813E-3,-8.9816644E-4,-3.495719E-3],"split_indices":[51,80,77,77,80,25,51,0,0,0,0,0,0,0,0],"split_type":[0,0,0,0,0,0,0,0,0,0,0,0,0,0,0],"sum_hessian":[6.772398E3,3.3114456E3,3.4609526E3,1.6752635E3,1.6361819E3,1.0597336E3,2.401219E3,1.184369E3,4.9089444E2,9.9146216E2,6.447198E2,3.7133508E2,6.8839856E2,1.8022517E3,5.9896735E2],"tree_param":{"num_deleted":"0","num_feature":"106","num_nodes":"15","size_leaf_vector":"1"}},{"base_weights":[-1.19176224E-1,-2.2976533E-1,1.3755876E-1,-9.043332E-2,-3.881937E-1,-9.92587E-3,2.9520157E-1,-2.2046268E-3,2.8245195E-4,-3.292329E-3,-5.5426997E-3,1.227316E-3,-1.6093483E-3,4.2502093E-3,2.1319608E-3],"categories":[],"categories_nodes":[],"categories_segments":[],"categories_sizes":[],"default_left":[0,0,0,0,0,0,0,0,0,0,0,0,0,0,0],"id":46,"left_children":[1,3,5,7,9,11,13,-1,-1,-1,-1,-1,-1,-1,-1],"loss_changes":[1.9227493E2,1.0443884E2,4.7413044E1,3.888642E1,2.1500488E1,2.1143751E1,1.0402702E1,0E0,0E0,0E0,0E0,0E0,0E0,0E0,0E0],"parents":[2147483647,0,0,1,1,2,2,3,3,4,4,5,5,6,6],"right_children":[2,4,6,8,10,12,14,-1,-1,-1,-1,-1,-1,-1,-1],"split_conditions":[2E1,1.4E1,5.14E-1,1E1,2.6E1,-4.8E0,-6.2E0,-2.2046268E-3,2.8245195E-4,-3.292329E-3,-5.5426997E-3,1.227316E-3,-1.6093483E-3,4.2502093E-3,2.1319608E-3],"split_indices":[28,80,55,51,80,25,25,0,0,0,0,0,0,0,0],"split_type":[0,0,0,0,0,0,0,0,0,0,0,0,0,0,0],"sum_hessian":[6.770018E3,4.731864E3,2.0381544E3,2.518503E3,2.2133606E3,1.0534882E3,9.846663E2,1.2013708E3,1.3171321E3,1.6356503E3,5.777103E2,5.609209E2,4.9256723E2,3.7958258E2,6.0508374E2],"tree_param":{"num_deleted":"0","num_feature":"106","num_nodes":"15","size_leaf_vector":"1"}},{"base_weights":[1.1917624E-1,2.2976534E-1,-1.3755876E-1,9.043332E-2,3.8819376E-1,9.9258525E-3,-2.9520157E-1,2.204627E-3,-2.824521E-4,3.2923291E-3,5.5427006E-3,-1.2273161E-3,1.6093482E-3,-4.25021E-3,-2.1319606E-3],"categories":[],"categories_nodes":[],"categories_segments":[],"categories_sizes":[],"default_left":[0,0,0,0,0,0,0,0,0,0,0,0,0,0,0],"id":47,"left_children":[1,3,5,7,9,11,13,-1,-1,-1,-1,-1,-1,-1,-1],"loss_changes":[1.9227495E2,1.0443886E2,4.7413048E1,3.8886433E1,2.1500519E1,2.1143751E1,1.0402702E1,0E0,0E0,0E0,0E0,0E0,0E0,0E0,0E0],"parents":[2147483647,0,0,1,1,2,2,3,3,4,4,5,5,6,6],"right_children":[2,4,6,8,10,12,14,-1,-1,-1,-1,-1,-1,-1,-1],"split_conditions":[2E1,1.4E1,5.14E-1,1E1,2.6E1,-4.8E0,-6.2E0,2.204627E-3,-2.824521E-4,3.2923291E-3,5.5427006E-3,-1.2273161E-3,1.6093482E-3,-4.25021E-3,-2.1319606E-3],"split_indices":[28,80,55,51,80,25,25,0,0,0,0,0,0,0,0],"split_type":[0,0,0,0,0,0,0,0,0,0,0,0,0,0,0],"sum_hessian":[6.770018E3,4.731864E3,2.0381545E3,2.518503E3,2.2133606E3,1.0534882E3,9.846663E2,1.2013708E3,1.317132E3,1.6356504E3,5.777103E2,5.609209E2,4.9256726E2,3.7958258E2,6.0508374E2],"tree_param":{"num_deleted":"0","num_feature":"106","num_nodes":"15","size_leaf_vector":"1"}},{"base_weights":[-1.18028425E-1,9.55687E-2,-2.4865417E-1,-3.6760528E-2,2.6387483E-1,-3.4920177E-1,-2.8381975E-2,1.2824695E-3,-1.7456139E-3,-1.6817223E-5,2.9744501E-3,-2.7840459E-3,-5.222811E-3,9.446534E-4,-1.5120459E-3],"categories":[],"categories_nodes":[],"categories_segments":[],"categories_sizes":[],"default_left":[0,0,0,0,0,0,0,0,0,0,0,0,0,0,0],"id":48,"left_children":[1,3,5,7,9,11,13,-1,-1,-1,-1,-1,-1,-1,-1],"loss_changes":[1.8887543E2,5.723175E1,9.301776E1,3.274803E1,1.0083305E1,3.5191406E1,1.989328E1,0E0,0E0,0E0,0E0,0E0,0E0,0E0,0E0],"parents":[2147483647,0,0,1,1,2,2,3,3,4,4,5,5,6,6],"right_children":[2,4,6,8,10,12,14,-1,-1,-1,-1,-1,-1,-1,-1],"split_conditions":[4.64E-1,5.36E-1,3.1E0,-4.8E0,1.8E1,2.3E1,3.1E0,1.2824695E-3,-1.7456139E-3,-1.6817223E-5,2.9744501E-3,-2.7840459E-3,-5.222811E-3,9.446534E-4,-1.5120459E-3],"split_indices":[3,55,77,25,28,80,25,0,0,0,0,0,0,0,0],"split_type":[0,0,0,0,0,0,0,0,0,0,0,0,0,0,0],"sum_hessian":[6.7675645E3,2.5682583E3,4.199306E3,1.4382379E3,1.1300204E3,2.882807E3,1.3164995E3,6.5453937E2,7.836985E2,1.2692575E2,1.0030946E3,2.0477815E3,8.350254E2,6.58299E2,6.582005E2],"tree_param":{"num_deleted":"0","num_feature":"106","num_nodes":"15","size_leaf_vector":"1"}},{"base_weights":[1.18028425E-1,-9.5568694E-2,2.4865417E-1,3.6760528E-2,-2.6387483E-1,3.4920177E-1,2.8381966E-2,-1.282469E-3,1.7456138E-3,1.681724E-5,-2.97445E-3,2.7840459E-3,5.2228114E-3,-9.446534E-4,1.5120456E-3],"categories":[],"categories_nodes":[],"categories_segments":[],"categories_sizes":[],"default_left":[0,0,0,0,0,0,0,0,0,0,0,0,0,0,0],"id":49,"left_children":[1,3,5,7,9,11,13,-1,-1,-1,-1,-1,-1,-1,-1],"loss_changes":[1.888754E2,5.723175E1,9.301779E1,3.2748016E1,1.0083305E1,3.5191406E1,1.9893278E1,0E0,0E0,0E0,0E0,0E0,0E0,0E0,0E0],"parents":[2147483647,0,0,1,1,2,2,3,3,4,4,5,5,6,6],"right_children":[2,4,6,8,10,12,14,-1,-1,-1,-1,-1,-1,-1,-1],"split_conditions":[4.64E-1,5.36E-1,3.1E0,-4.8E0,1.8E1,2.3E1,3.1E0,-1.282469E-3,1.7456138E-3,1.681724E-5,-2.97445E-3,2.7840459E-3,5.2228114E-3,-9.446534E-4,1.5120456E-3],"split_indices":[3,55,77,25,28,80,25,0,0,0,0,0,0,0,0],"split_type":[0,0,0,0,0,0,0,0,0,0,0,0,0,0,0],"sum_hessian":[6.7675645E3,2.5682583E3,4.199306E3,1.4382379E3,1.1300204E3,2.882807E3,1.3164995E3,6.545394E2,7.836985E2,1.2692575E2,1.0030946E3,2.0477815E3,8.350254E2,6.58299E2,6.582005E2],"tree_param":{"num_deleted":"0","num_feature":"106","num_nodes":"15","size_leaf_vector":"1"}},{"base_weights":[-1.16892144E-1,-2.86405E-1,4.5216836E-2,-3.7061527E-1,-6.2700324E-2,-1.9598526E-1,1.5163696E-1,-3.0230465E-3,-5.570762E-3,-2.1287075E-3,1.0611385E-5,-9.957489E-5,-3.364562E-3,5.58458E-4,2.7714819E-3],"categories":[],"categories_nodes":[],"categories_segments":[],"categories_sizes":[],"default_left":[0,0,0,0,0,0,0,0,0,0,0,0,0,0,0],"id":50,"left_children":[1,3,5,7,9,11,13,-1,-1,-1,-1,-1,-1,-1,-1],"loss_changes":[1.8594237E2,6.228717E1,8.882935E1,3.0437408E1,8.673334E0,2.7682991E1,2.8850735E1,0E0,0E0,0E0,0E0,0E0,0E0,0E0,0E0],"parents":[2147483647,0,0,1,1,2,2,3,3,4,4,5,5,6,6],"right_children":[2,4,6,8,10,12,14,-1,-1,-1,-1,-1,-1,-1,-1],"split_conditions":[1.5E1,3.8E0,-2E0,2.3E1,9E0,-3.7E0,2.4E1,-3.0230465E-3,-5.570762E-3,-2.1287075E-3,1.0611385E-5,-9.957489E-5,-3.364562E-3,5.58458E-4,2.7714819E-3],"split_indices":[51,77,77,80,101,25,51,0,0,0,0,0,0,0,0],"split_type":[0,0,0,0,0,0,0,0,0,0,0,0,0,0,0],"sum_hessian":[6.7650996E3,3.3066555E3,3.4584443E3,2.401856E3,9.0479944E2,1.0585011E3,2.399943E3,1.7597769E3,6.420791E2,2.6897452E2,6.358249E2,4.5586423E2,6.026369E2,1.3619426E3,1.0380005E3],"tree_param":{"num_deleted":"0","num_feature":"106","num_nodes":"15","size_leaf_vector":"1"}},{"base_weights":[1.1689214E-1,2.8640497E-1,-4.5216832E-2,3.7061524E-1,6.270031E-2,1.9598526E-1,-1.5163696E-1,3.0230463E-3,5.5707614E-3,2.1287072E-3,-1.0611522E-5,9.95749E-5,3.364562E-3,-5.5845786E-4,-2.7714819E-3],"categories":[],"categories_nodes":[],"categories_segments":[],"categories_sizes":[],"default_left":[0,0,0,0,0,0,0,0,0,0,0,0,0,0,0],"id":51,"left_children":[1,3,5,7,9,11,13,-1,-1,-1,-1,-1,-1,-1,-1],"loss_changes":[1.8594235E2,6.228714E1,8.8829346E1,3.0437408E1,8.673333E0,2.7682999E1,2.885075E1,0E0,0E0,0E0,0E0,0E0,0E0,0E0,0E0],"parents":[2147483647,0,0,1,1,2,2,3,3,4,4,5,5,6,6],"right_children":[2,4,6,8,10,12,14,-1,-1,-1,-1,-1,-1,-1,-1],"split_conditions":[1.5E1,3.8E0,-2E0,2.3E1,9E0,-3.7E0,2.4E1,3.0230463E-3,5.5707614E-3,2.1287072E-3,-1.0611522E-5,9.95749E-5,3.364562E-3,-5.5845786E-4,-2.7714819E-3],"split_indices":[51,77,77,80,101,25,51,0,0,0,0,0,0,0,0],"split_type":[0,0,0,0,0,0,0,0,0,0,0,0,0,0,0],"sum_hessian":[6.7650996E3,3.3066553E3,3.4584443E3,2.401856E3,9.0479944E2,1.0585011E3,2.399943E3,1.7597769E3,6.420791E2,2.6897452E2,6.358249E2,4.5586426E2,6.026369E2,1.3619426E3,1.0380005E3],"tree_param":{"num_deleted":"0","num_feature":"106","num_nodes":"15","size_leaf_vector":"1"}},{"base_weights":[-1.1576964E-1,-2.836984E-1,4.4774976E-2,-3.6718035E-1,-6.2078677E-2,-1.9410053E-1,1.5014794E-1,-2.994064E-3,-5.523952E-3,-2.1078428E-3,1.0505464E-5,-3.440717E-4,-3.5549982E-3,8.740026E-4,3.3876197E-3],"categories":[],"categories_nodes":[],"categories_segments":[],"categories_sizes":[],"default_left":[0,0,0,0,0,0,0,0,0,0,0,0,0,0,0],"id":52,"left_children":[1,3,5,7,9,11,13,-1,-1,-1,-1,-1,-1,-1,-1],"loss_changes":[1.8235748E2,6.1139923E1,8.7086754E1,2.997522E1,8.50316E0,2.7285751E1,2.8380905E1,0E0,0E0,0E0,0E0,0E0,0E0,0E0,0E0],"parents":[2147483647,0,0,1,1,2,2,3,3,4,4,5,5,6,6],"right_children":[2,4,6,8,10,12,14,-1,-1,-1,-1,-1,-1,-1,-1],"split_conditions":[1.5E1,3.8E0,-2E0,2.3E1,9E0,3.94E-1,2.7E1,-2.994064E-3,-5.523952E-3,-2.1078428E-3,1.0505464E-5,-3.440717E-4,-3.5549982E-3,8.740026E-4,3.3876197E-3],"split_indices":[51,77,77,80,101,3,51,0,0,0,0,0,0,0,0],"split_type":[0,0,0,0,0,0,0,0,0,0,0,0,0,0,0],"sum_hessian":[6.762515E3,3.304871E3,3.457644E3,2.400115E3,9.047561E2,1.0581122E3,2.3995317E3,1.7590565E3,6.410584E2,2.6893073E2,6.358254E2,5.3247675E2,5.2563544E2,1.8016322E3,5.9789966E2],"tree_param":{"num_deleted":"0","num_feature":"106","num_nodes":"15","size_leaf_vector":"1"}},{"base_weights":[1.1576965E-1,2.836984E-1,-4.4774957E-2,3.6718035E-1,6.2078677E-2,1.9410051E-1,-1.5014793E-1,2.994064E-3,5.523952E-3,2.1078426E-3,-1.0505369E-5,3.440716E-4,3.5549982E-3,-8.7400223E-4,-3.3876193E-3],"categories":[],"categories_nodes":[],"categories_segments":[],"categories_sizes":[],"default_left":[0,0,0,0,0,0,0,0,0,0,0,0,0,0,0],"id":53,"left_children":[1,3,5,7,9,11,13,-1,-1,-1,-1,-1,-1,-1,-1],"loss_changes":[1.8235747E2,6.1139923E1,8.708674E1,2.997519E1,8.503159E0,2.7285755E1,2.8380909E1,0E0,0E0,0E0,0E0,0E0,0E0,0E0,0E0],"parents":[2147483647,0,0,1,1,2,2,3,3,4,4,5,5,6,6],"right_children":[2,4,6,8,10,12,14,-1,-1,-1,-1,-1,-1,-1,-1],"split_conditions":[1.5E1,3.8E0,-2E0,2.3E1,9E0,3.94E-1,2.7E1,2.994064E-3,5.523952E-3,2.1078426E-3,-1.0505369E-5,3.440716E-4,3.5549982E-3,-8.7400223E-4,-3.3876193E-3],"split_indices":[51,77,77,80,101,3,51,0,0,0,0,0,0,0,0],"split_type":[0,0,0,0,0,0,0,0,0,0,0,0,0,0,0],"sum_hessian":[6.762515E3,3.304871E3,3.457644E3,2.400115E3,9.047561E2,1.0581122E3,2.3995317E3,1.7590565E3,6.410584E2,2.6893073E2,6.358254E2,5.3247675E2,5.2563544E2,1.8016322E3,5.9789966E2],"tree_param":{"num_deleted":"0","num_feature":"106","num_nodes":"15","size_leaf_vector":"1"}},{"base_weights":[-1.146584E-1,-2.1386181E-1,1.5249127E-1,-7.77043E-2,-3.680365E-1,1.3722595E-2,3.0545574E-1,-2.1290118E-3,3.677494E-4,-2.7025256E-3,-4.695003E-3,1.208724E-3,-1.3490359E-3,3.4546133E-3,9.44917E-4],"categories":[],"categories_nodes":[],"categories_segments":[],"categories_sizes":[],"default_left":[0,0,0,0,0,0,0,0,0,0,0,0,0,0,0],"id":54,"left_children":[1,3,5,7,9,11,13,-1,-1,-1,-1,-1,-1,-1,-1],"loss_changes":[1.7921103E2,1.0347388E2,3.8869137E1,4.0550987E1,2.281189E1,1.5324873E1,7.318947E0,0E0,0E0,0E0,0E0,0E0,0E0,0E0,0E0],"parents":[2147483647,0,0,1,1,2,2,3,3,4,4,5,5,6,6],"right_children":[2,4,6,8,10,12,14,-1,-1,-1,-1,-1,-1,-1,-1],"split_conditions":[2.1E1,1.4E1,5.17E-1,1E1,2.2E1,-4.8E0,4.86E1,-2.1290118E-3,3.677494E-4,-2.7025256E-3,-4.695003E-3,1.208724E-3,-1.3490359E-3,3.4546133E-3,9.44917E-4],"split_indices":[28,80,55,51,80,25,56,0,0,0,0,0,0,0,0],"split_type":[0,0,0,0,0,0,0,0,0,0,0,0,0,0,0],"sum_hessian":[6.7598994E3,4.9295566E3,1.830343E3,2.6185342E3,2.3110225E3,9.602753E2,8.700676E2,1.2002324E3,1.4183018E3,1.1787175E3,1.1323049E3,5.5810486E2,4.021705E2,7.308394E2,1.3922821E2],"tree_param":{"num_deleted":"0","num_feature":"106","num_nodes":"15","size_leaf_vector":"1"}},{"base_weights":[1.146584E-1,2.1386181E-1,-1.5249126E-1,7.7704296E-2,3.680365E-1,-1.3722572E-2,-3.0545574E-1,2.1290118E-3,-3.6774948E-4,2.7025256E-3,4.6950025E-3,-1.2087239E-3,1.3490363E-3,-3.454613E-3,-9.449168E-4],"categories":[],"categories_nodes":[],"categories_segments":[],"categories_sizes":[],"default_left":[0,0,0,0,0,0,0,0,0,0,0,0,0,0,0],"id":55,"left_children":[1,3,5,7,9,11,13,-1,-1,-1,-1,-1,-1,-1,-1],"loss_changes":[1.79211E2,1.0347388E2,3.886914E1,4.0550983E1,2.281192E1,1.5324877E1,7.3189316E0,0E0,0E0,0E0,0E0,0E0,0E0,0E0,0E0],"parents":[2147483647,0,0,1,1,2,2,3,3,4,4,5,5,6,6],"right_children":[2,4,6,8,10,12,14,-1,-1,-1,-1,-1,-1,-1,-1],"split_conditions":[2.1E1,1.4E1,5.17E-1,1E1,2.2E1,-4.8E0,4.86E1,2.1290118E-3,-3.6774948E-4,2.7025256E-3,4.6950025E-3,-1.2087239E-3,1.3490363E-3,-3.454613E-3,-9.449168E-4],"split_indices":[28,80,55,51,80,25,56,0,0,0,0,0,0,0,0],"split_type":[0,0,0,0,0,0,0,0,0,0,0,0,0,0,0],"sum_hessian":[6.7598994E3,4.9295566E3,1.830343E3,2.6185342E3,2.3110225E3,9.602753E2,8.700676E2,1.2002324E3,1.4183018E3,1.1787175E3,1.1323049E3,5.5810486E2,4.0217047E2,7.308394E2,1.3922821E2],"tree_param":{"num_deleted":"0","num_feature":"106","num_nodes":"15","size_leaf_vector":"1"}},{"base_weights":[-1.1355846E-1,-2.7877071E-1,4.4301357E-2,-3.6120206E-1,-6.0202394E-2,-1.6919598E-1,1.5828212E-1,-2.9450075E-3,-5.43901E-3,-2.0743182E-3,2.2864542E-5,-3.1878983E-3,-1.2075111E-4,6.309029E-4,2.8420582E-3],"categories":[],"categories_nodes":[],"categories_segments":[],"categories_sizes":[],"default_left":[0,0,0,0,0,0,0,0,0,0,0,0,0,0,0],"id":56,"left_children":[1,3,5,7,9,11,13,-1,-1,-1,-1,-1,-1,-1,-1],"loss_changes":[1.7626874E2,5.9476013E1,8.414814E1,2.9059631E1,8.3319235E0,2.8287495E1,2.7002926E1,0E0,0E0,0E0,0E0,0E0,0E0,0E0,0E0],"parents":[2147483647,0,0,1,1,2,2,3,3,4,4,5,5,6,6],"right_children":[2,4,6,8,10,12,14,-1,-1,-1,-1,-1,-1,-1,-1],"split_conditions":[1.5E1,3.8E0,-1.4E0,2.3E1,9E0,2.2E1,2.4E1,-2.9450075E-3,-5.43901E-3,-2.0743182E-3,2.2864542E-5,-3.1878983E-3,-1.2075111E-4,6.309029E-4,2.8420582E-3],"split_indices":[51,77,77,80,101,27,51,0,0,0,0,0,0,0,0],"split_type":[0,0,0,0,0,0,0,0,0,0,0,0,0,0,0],"sum_hessian":[6.757199E3,3.3013352E3,3.4558638E3,2.3967625E3,9.045729E2,1.2026659E3,2.2531978E3,1.7576694E3,6.39093E2,2.688405E2,6.3573236E2,6.1556305E2,5.8710284E2,1.2840347E3,9.691631E2],"tree_param":{"num_deleted":"0","num_feature":"106","num_nodes":"15","size_leaf_vector":"1"}},{"base_weights":[1.1355844E-1,2.7877071E-1,-4.4301372E-2,3.6120203E-1,6.0202412E-2,1.6919596E-1,-1.5828212E-1,2.9450073E-3,5.4390095E-3,2.0743185E-3,-2.2864368E-5,3.1878983E-3,1.2075059E-4,-6.30903E-4,-2.842058E-3],"categories":[],"categories_nodes":[],"categories_segments":[],"categories_sizes":[],"default_left":[0,0,0,0,0,0,0,0,0,0,0,0,0,0,0],"id":57,"left_children":[1,3,5,7,9,11,13,-1,-1,-1,-1,-1,-1,-1,-1],"loss_changes":[1.7626874E2,5.9476013E1,8.414814E1,2.905954E1,8.331924E0,2.8287502E1,2.7002922E1,0E0,0E0,0E0,0E0,0E0,0E0,0E0,0E0],"parents":[2147483647,0,0,1,1,2,2,3,3,4,4,5,5,6,6],"right_children":[2,4,6,8,10,12,14,-1,-1,-1,-1,-1,-1,-1,-1],"split_conditions":[1.5E1,3.8E0,-1.4E0,2.3E1,9E0,2.2E1,2.4E1,2.9450073E-3,5.4390095E-3,2.0743185E-3,-2.2864368E-5,3.1878983E-3,1.2075059E-4,-6.30903E-4,-2.842058E-3],"split_indices":[51,77,77,80,101,27,51,0,0,0,0,0,0,0,0],"split_type":[0,0,0,0,0,0,0,0,0,0,0,0,0,0,0],"sum_hessian":[6.757199E3,3.3013352E3,3.4558638E3,2.3967625E3,9.045729E2,1.2026659E3,2.2531978E3,1.7576694E3,6.39093E2,2.688405E2,6.3573236E2,6.1556305E2,5.8710284E2,1.2840347E3,9.6916315E2],"tree_param":{"num_deleted":"0","num_feature":"106","num_nodes":"15","size_leaf_vector":"1"}},{"base_weights":[-1.1247094E-1,9.21117E-2,-2.3773856E-1,-3.5399083E-2,2.5435814E-1,-3.3491704E-1,-2.5466993E-2,1.23056E-3,-1.6778734E-3,-4.026386E-5,2.87068E-3,-2.6715081E-3,-5.0147683E-3,9.396372E-4,-1.4495173E-3],"categories":[],"categories_nodes":[],"categories_segments":[],"categories_sizes":[],"default_left":[0,0,0,0,0,0,0,0,0,0,0,0,0,0,0],"id":58,"left_children":[1,3,5,7,9,11,13,-1,-1,-1,-1,-1,-1,-1,-1],"loss_changes":[1.7314743E2,5.3099846E1,8.6427795E1,3.0182598E1,9.546738E0,3.2307983E1,1.8806767E1,0E0,0E0,0E0,0E0,0E0,0E0,0E0,0E0],"parents":[2147483647,0,0,1,1,2,2,3,3,4,4,5,5,6,6],"right_children":[2,4,6,8,10,12,14,-1,-1,-1,-1,-1,-1,-1,-1],"split_conditions":[4.64E-1,5.36E-1,3.1E0,-4.8E0,1.8E1,2.3E1,3.1E0,1.23056E-3,-1.6778734E-3,-4.026386E-5,2.87068E-3,-2.6715081E-3,-5.0147683E-3,9.396372E-4,-1.4495173E-3],"split_indices":[3,55,77,25,28,80,25,0,0,0,0,0,0,0,0],"split_type":[0,0,0,0,0,0,0,0,0,0,0,0,0,0,0],"sum_hessian":[6.754439E3,2.5652417E3,4.1891973E3,1.4368173E3,1.1284244E3,2.873242E3,1.3159553E3,6.5405334E2,7.827639E2,1.26897995E2,1.0015264E3,2.0441617E3,8.290801E2,6.582332E2,6.5772205E2],"tree_param":{"num_deleted":"0","num_feature":"106","num_nodes":"15","size_leaf_vector":"1"}},{"base_weights":[1.1247095E-1,-9.211171E-2,2.3773858E-1,3.5399087E-2,-2.5435817E-1,3.3491704E-1,2.5466999E-2,-1.23056E-3,1.6778734E-3,4.026371E-5,-2.8706803E-3,2.6715081E-3,5.014769E-3,-9.396369E-4,1.4495171E-3],"categories":[],"categories_nodes":[],"categories_segments":[],"categories_sizes":[],"default_left":[0,0,0,0,0,0,0,0,0,0,0,0,0,0,0],"id":59,"left_children":[1,3,5,7,9,11,13,-1,-1,-1,-1,-1,-1,-1,-1],"loss_changes":[1.7314746E2,5.3099854E1,8.642778E1,3.0182596E1,9.546745E0,3.2307983E1,1.8806757E1,0E0,0E0,0E0,0E0,0E0,0E0,0E0,0E0],"parents":[2147483647,0,0,1,1,2,2,3,3,4,4,5,5,6,6],"right_children":[2,4,6,8,10,12,14,-1,-1,-1,-1,-1,-1,-1,-1],"split_conditions":[4.64E-1,5.36E-1,3.1E0,-4.8E0,1.8E1,2.3E1,3.1E0,-1.23056E-3,1.6778734E-3,4.026371E-5,-2.8706803E-3,2.6715081E-3,5.014769E-3,-9.396369E-4,1.4495171E-3],"split_indices":[3,55,77,25,28,80,25,0,0,0,0,0,0,0,0],"split_type":[0,0,0,0,0,0,0,0,0,0,0,0,0,0,0],"sum_hessian":[6.754439E3,2.5652417E3,4.1891973E3,1.4368173E3,1.1284244E3,2.873242E3,1.3159553E3,6.5405334E2,7.827639E2,1.26897995E2,1.0015264E3,2.0441617E3,8.290801E2,6.582333E2,6.5772205E2],"tree_param":{"num_deleted":"0","num_feature":"106","num_nodes":"15","size_leaf_vector":"1"}},{"base_weights":[-1.11393556E-1,-2.7391052E-1,4.3795597E-2,-1.4343183E-1,-4.0810362E-1,-2.0244774E-1,1.3969915E-1,-2.1377516E-3,2.617466E-4,-3.2556413E-3,-5.353723E-3,-1.5588703E-4,-3.434637E-3,6.952214E-4,2.922528E-3],"categories":[],"categories_nodes":[],"categories_segments":[],"categories_sizes":[],"default_left":[0,0,0,0,0,0,0,0,0,0,0,0,0,0,0],"id":60,"left_children":[1,3,5,7,9,11,13,-1,-1,-1,-1,-1,-1,-1,-1],"loss_changes":[1.7031987E2,5.76976E1,8.1621735E1,1.9977375E1,1.6902222E1,2.5524235E1,2.6607082E1,0E0,0E0,0E0,0E0,0E0,0E0,0E0,0E0],"parents":[2147483647,0,0,1,1,2,2,3,3,4,4,5,5,6,6],"right_children":[2,4,6,8,10,12,14,-1,-1,-1,-1,-1,-1,-1,-1],"split_conditions":[1.5E1,1.3E1,-2.4E0,6E0,2.3E1,-3.7E0,2.6E1,-2.1377516E-3,2.617466E-4,-3.2556413E-3,-5.353723E-3,-1.5588703E-4,-3.434637E-3,6.952214E-4,2.922528E-3],"split_indices":[51,80,77,77,80,25,51,0,0,0,0,0,0,0,0],"split_type":[0,0,0,0,0,0,0,0,0,0,0,0,0,0,0],"sum_hessian":[6.7516562E3,3.2975918E3,3.4540645E3,1.6729841E3,1.6246078E3,9.6786053E2,2.4862039E3,1.1823506E3,4.906335E2,9.876381E2,6.369696E2,4.167454E2,5.511151E2,1.7038588E3,7.823451E2],"tree_param":{"num_deleted":"0","num_feature":"106","num_nodes":"15","size_leaf_vector":"1"}},{"base_weights":[1.11393556E-1,2.739105E-1,-4.3795593E-2,1.4343183E-1,4.081036E-1,2.0244774E-1,-1.3969913E-1,2.1377516E-3,-2.6174693E-4,3.255641E-3,5.353723E-3,1.558868E-4,3.4346373E-3,-6.9522136E-4,-2.922528E-3],"categories":[],"categories_nodes":[],"categories_segments":[],"categories_sizes":[],"default_left":[0,0,0,0,0,0,0,0,0,0,0,0,0,0,0],"id":61,"left_children":[1,3,5,7,9,11,13,-1,-1,-1,-1,-1,-1,-1,-1],"loss_changes":[1.7031985E2,5.769763E1,8.1621735E1,1.9977375E1,1.6902191E1,2.5524235E1,2.6607086E1,0E0,0E0,0E0,0E0,0E0,0E0,0E0,0E0],"parents":[2147483647,0,0,1,1,2,2,3,3,4,4,5,5,6,6],"right_children":[2,4,6,8,10,12,14,-1,-1,-1,-1,-1,-1,-1,-1],"split_conditions":[1.5E1,1.3E1,-2.4E0,6E0,2.3E1,-3.7E0,2.6E1,2.1377516E-3,-2.6174693E-4,3.255641E-3,5.353723E-3,1.558868E-4,3.4346373E-3,-6.9522136E-4,-2.922528E-3],"split_indices":[51,80,77,77,80,25,51,0,0,0,0,0,0,0,0],"split_type":[0,0,0,0,0,0,0,0,0,0,0,0,0,0,0],"sum_hessian":[6.7516562E3,3.2975918E3,3.4540645E3,1.6729841E3,1.6246078E3,9.6786053E2,2.4862039E3,1.1823506E3,4.9063354E2,9.876382E2,6.369696E2,4.167454E2,5.511152E2,1.7038588E3,7.823451E2],"tree_param":{"num_deleted":"0","num_feature":"106","num_nodes":"15","size_leaf_vector":"1"}},{"base_weights":[-1.1032905E-1,-2.1366031E-1,1.2915686E-1,-8.290013E-2,-3.6315712E-1,-9.627995E-3,2.7772537E-1,-2.058219E-3,2.9102524E-4,-5.0607095E-3,-3.002021E-3,1.139335E-3,-1.5034326E-3,4.0279687E-3,1.9894163E-3],"categories":[],"categories_nodes":[],"categories_segments":[],"categories_sizes":[],"default_left":[0,0,0,0,0,0,0,0,0,0,0,0,0,0,0],"id":62,"left_children":[1,3,5,7,9,11,13,-1,-1,-1,-1,-1,-1,-1,-1],"loss_changes":[1.6705988E2,9.2152374E1,4.196502E1,3.46555E1,1.9640808E1,1.8328657E1,9.605469E0,0E0,0E0,0E0,0E0,0E0,0E0,0E0,0E0],"parents":[2147483647,0,0,1,1,2,2,3,3,4,4,5,5,6,6],"right_children":[2,4,6,8,10,12,14,-1,-1,-1,-1,-1,-1,-1,-1],"split_conditions":[2E1,1.4E1,5.14E-1,1E1,7E0,-4.8E0,-6.2E0,-2.058219E-3,2.9102524E-4,-5.0607095E-3,-3.002021E-3,1.139335E-3,-1.5034326E-3,4.0279687E-3,1.9894163E-3],"split_indices":[28,80,55,51,51,25,25,0,0,0,0,0,0,0,0],"split_type":[0,0,0,0,0,0,0,0,0,0,0,0,0,0,0],"sum_hessian":[6.748766E3,4.714642E3,2.0341244E3,2.5157493E3,2.1988926E3,1.0521741E3,9.819503E2,1.1990101E3,1.316739E3,6.7027234E2,1.5286204E3,5.603358E2,4.9183826E2,3.7790384E2,6.040465E2],"tree_param":{"num_deleted":"0","num_feature":"106","num_nodes":"15","size_leaf_vector":"1"}},{"base_weights":[1.1032905E-1,2.1366031E-1,-1.2915684E-1,8.290013E-2,3.6315712E-1,9.628004E-3,-2.7772534E-1,2.058219E-3,-2.910253E-4,5.0607095E-3,3.002021E-3,-1.139335E-3,1.5034328E-3,-4.0279687E-3,-1.9894163E-3],"categories":[],"categories_nodes":[],"categories_segments":[],"categories_sizes":[],"default_left":[0,0,0,0,0,0,0,0,0,0,0,0,0,0,0],"id":63,"left_children":[1,3,5,7,9,11,13,-1,-1,-1,-1,-1,-1,-1,-1],"loss_changes":[1.6705988E2,9.215231E1,4.1965015E1,3.4655502E1,1.9640839E1,1.8328657E1,9.605469E0,0E0,0E0,0E0,0E0,0E0,0E0,0E0,0E0],"parents":[2147483647,0,0,1,1,2,2,3,3,4,4,5,5,6,6],"right_children":[2,4,6,8,10,12,14,-1,-1,-1,-1,-1,-1,-1,-1],"split_conditions":[2E1,1.4E1,5.14E-1,1E1,7E0,-4.8E0,-6.2E0,2.058219E-3,-2.910253E-4,5.0607095E-3,3.002021E-3,-1.139335E-3,1.5034328E-3,-4.0279687E-3,-1.9894163E-3],"split_indices":[28,80,55,51,51,25,25,0,0,0,0,0,0,0,0],"split_type":[0,0,0,0,0,0,0,0,0,0,0,0,0,0,0],"sum_hessian":[6.748766E3,4.714642E3,2.0341244E3,2.5157493E3,2.1988928E3,1.0521741E3,9.819503E2,1.1990101E3,1.316739E3,6.7027234E2,1.5286204E3,5.603358E2,4.9183823E2,3.779038E2,6.040465E2],"tree_param":{"num_deleted":"0","num_feature":"106","num_nodes":"15","size_leaf_vector":"1"}},{"base_weights":[-1.09273456E-1,-2.6900977E-1,4.315872E-2,-3.4918633E-1,-5.698761E-2,-8.734215E-2,2.1875767E-1,-2.84267E-3,-5.2783317E-3,-2.0262082E-3,4.8044254E-5,1.0960392E-3,-1.9519783E-3,3.7035516E-3,1.6562615E-3],"categories":[],"categories_nodes":[],"categories_segments":[],"categories_sizes":[],"default_left":[0,0,0,0,0,0,0,0,0,0,0,0,0,0,0],"id":64,"left_children":[1,3,5,7,9,11,13,-1,-1,-1,-1,-1,-1,-1,-1],"loss_changes":[1.6429135E2,5.5986557E1,7.915289E1,2.7573334E1,8.146987E0,4.2116585E1,1.17992325E1,0E0,0E0,0E0,0E0,0E0,0E0,0E0,0E0],"parents":[2147483647,0,0,1,1,2,2,3,3,4,4,5,5,6,6],"right_children":[2,4,6,8,10,12,14,-1,-1,-1,-1,-1,-1,-1,-1],"split_conditions":[1.5E1,3.8E0,5.45E-1,2.3E1,9E0,-4.7E0,-6E0,-2.84267E-3,-5.2783317E-3,-2.0262082E-3,4.8044254E-5,1.0960392E-3,-1.9519783E-3,3.7035516E-3,1.6562615E-3],"split_indices":[51,77,55,80,101,25,25,0,0,0,0,0,0,0,0],"split_type":[0,0,0,0,0,0,0,0,0,0,0,0,0,0,0],"sum_hessian":[6.74589E3,3.2936511E3,3.452239E3,2.389435E3,9.0421594E2,1.9807192E3,1.4715198E3,1.7544635E3,6.349716E2,2.6868723E2,6.355287E2,7.008821E2,1.2798373E3,3.8034116E2,1.0911786E3],"tree_param":{"num_deleted":"0","num_feature":"106","num_nodes":"15","size_leaf_vector":"1"}},{"base_weights":[1.0927344E-1,2.6900977E-1,-4.315873E-2,3.491863E-1,5.6987602E-2,8.734214E-2,-2.1875769E-1,2.84267E-3,5.2783308E-3,2.0262087E-3,-4.8044603E-5,-1.0960397E-3,1.9519784E-3,-3.7035511E-3,-1.6562616E-3],"categories":[],"categories_nodes":[],"categories_segments":[],"categories_sizes":[],"default_left":[0,0,0,0,0,0,0,0,0,0,0,0,0,0,0],"id":65,"left_children":[1,3,5,7,9,11,13,-1,-1,-1,-1,-1,-1,-1,-1],"loss_changes":[1.6429134E2,5.598654E1,7.91529E1,2.7573334E1,8.146994E0,4.21166E1,1.1799217E1,0E0,0E0,0E0,0E0,0E0,0E0,0E0,0E0],"parents":[2147483647,0,0,1,1,2,2,3,3,4,4,5,5,6,6],"right_children":[2,4,6,8,10,12,14,-1,-1,-1,-1,-1,-1,-1,-1],"split_conditions":[1.5E1,3.8E0,5.45E-1,2.3E1,9E0,-4.7E0,-6E0,2.84267E-3,5.2783308E-3,2.0262087E-3,-4.8044603E-5,-1.0960397E-3,1.9519784E-3,-3.7035511E-3,-1.6562616E-3],"split_indices":[51,77,55,80,101,25,25,0,0,0,0,0,0,0,0],"split_type":[0,0,0,0,0,0,0,0,0,0,0,0,0,0,0],"sum_hessian":[6.74589E3,3.2936511E3,3.452239E3,2.389435E3,9.0421594E2,1.9807192E3,1.4715198E3,1.7544635E3,6.349716E2,2.6868723E2,6.355287E2,7.008821E2,1.2798373E3,3.8034116E2,1.0911786E3],"tree_param":{"num_deleted":"0","num_feature":"106","num_nodes":"15","size_leaf_vector":"1"}},{"base_weights":[-1.0822874E-1,8.9363344E-2,-2.293488E-1,-3.3903524E-2,2.4630418E-1,-4.9600113E-2,-3.3783054E-1,1.1841852E-3,-1.6121459E-3,-8.874499E-4,2.713268E-3,-1.2108618E-3,1.3282248E-3,-2.6878333E-3,-4.866399E-3],"categories":[],"categories_nodes":[],"categories_segments":[],"categories_sizes":[],"default_left":[0,0,0,0,0,0,0,0,0,0,0,0,0,0,0],"id":66,"left_children":[1,3,5,7,9,11,13,-1,-1,-1,-1,-1,-1,-1,-1],"loss_changes":[1.6141998E2,4.9603394E1,8.151732E1,2.7880716E1,9.480141E0,2.0554028E1,2.6660278E1,0E0,0E0,0E0,0E0,0E0,0E0,0E0,0E0],"parents":[2147483647,0,0,1,1,2,2,3,3,4,4,5,5,6,6],"right_children":[2,4,6,8,10,12,14,-1,-1,-1,-1,-1,-1,-1,-1],"split_conditions":[4.64E-1,5.36E-1,1.1E1,-4.8E0,5E0,1.4E1,2.3E1,1.1841852E-3,-1.6121459E-3,-8.874499E-4,2.713268E-3,-1.2108618E-3,1.3282248E-3,-2.6878333E-3,-4.866399E-3],"split_indices":[3,55,103,25,53,51,80,0,0,0,0,0,0,0,0],"split_type":[0,0,0,0,0,0,0,0,0,0,0,0,0,0,0],"sum_hessian":[6.7429844E3,2.5626333E3,4.180351E3,1.435738E3,1.1268953E3,1.5739142E3,2.606437E3,6.536931E2,7.82045E2,7.813486E1,1.0487604E3,1.1310321E3,4.428821E2,1.7822727E3,8.2416437E2],"tree_param":{"num_deleted":"0","num_feature":"106","num_nodes":"15","size_leaf_vector":"1"}},{"base_weights":[1.0822875E-1,-8.936335E-2,2.293488E-1,3.3903506E-2,-2.4630418E-1,4.9600117E-2,3.3783057E-1,-1.1841855E-3,1.6121457E-3,8.8744983E-4,-2.713268E-3,1.2108617E-3,-1.3282247E-3,2.6878335E-3,4.8663993E-3],"categories":[],"categories_nodes":[],"categories_segments":[],"categories_sizes":[],"default_left":[0,0,0,0,0,0,0,0,0,0,0,0,0,0,0],"id":67,"left_children":[1,3,5,7,9,11,13,-1,-1,-1,-1,-1,-1,-1,-1],"loss_changes":[1.6141998E2,4.9603394E1,8.1517334E1,2.7880722E1,9.480133E0,2.0554022E1,2.6660278E1,0E0,0E0,0E0,0E0,0E0,0E0,0E0,0E0],"parents":[2147483647,0,0,1,1,2,2,3,3,4,4,5,5,6,6],"right_children":[2,4,6,8,10,12,14,-1,-1,-1,-1,-1,-1,-1,-1],"split_conditions":[4.64E-1,5.36E-1,1.1E1,-4.8E0,5E0,1.4E1,2.3E1,-1.1841855E-3,1.6121457E-3,8.8744983E-4,-2.713268E-3,1.2108617E-3,-1.3282247E-3,2.6878335E-3,4.8663993E-3],"split_indices":[3,55,103,25,53,51,80,0,0,0,0,0,0,0,0],"split_type":[0,0,0,0,0,0,0,0,0,0,0,0,0,0,0],"sum_hessian":[6.742985E3,2.5626333E3,4.1803516E3,1.435738E3,1.1268953E3,1.5739142E3,2.6064373E3,6.536931E2,7.82045E2,7.813486E1,1.0487604E3,1.1310321E3,4.428821E2,1.7822727E3,8.241644E2],"tree_param":{"num_deleted":"0","num_feature":"106","num_nodes":"15","size_leaf_vector":"1"}},{"base_weights":[-1.0719545E-1,-2.0073359E-1,1.443302E-1,-1.0806182E-1,-4.0542576E-1,1.3095046E-2,2.8927743E-1,-2.6928484E-3,-2.0597343E-4,-3.4886247E-3,-5.383694E-3,1.1301913E-3,-1.2553043E-3,3.2884395E-3,8.0847053E-4],"categories":[],"categories_nodes":[],"categories_segments":[],"categories_sizes":[],"default_left":[0,0,0,0,0,0,0,0,0,0,0,0,0,0,0],"id":68,"left_children":[1,3,5,7,9,11,13,-1,-1,-1,-1,-1,-1,-1,-1],"loss_changes":[1.5862604E2,9.317265E1,3.476679E1,4.771339E1,1.1325546E1,1.3317286E1,7.1360245E0,0E0,0E0,0E0,0E0,0E0,0E0,0E0,0E0],"parents":[2147483647,0,0,1,1,2,2,3,3,4,4,5,5,6,6],"right_children":[2,4,6,8,10,12,14,-1,-1,-1,-1,-1,-1,-1,-1],"split_conditions":[2.1E1,1.9E1,5.17E-1,7E0,3.7E1,-4.8E0,4.86E1,-2.6928484E-3,-2.0597343E-4,-3.4886247E-3,-5.383694E-3,1.1301913E-3,-1.2553043E-3,3.2884395E-3,8.0847053E-4],"split_indices":[28,80,55,27,54,25,56,0,0,0,0,0,0,0,0],"split_type":[0,0,0,0,0,0,0,0,0,0,0,0,0,0,0],"sum_hessian":[6.739997E3,4.9131E3,1.826897E3,3.3830122E3,1.5300879E3,9.593722E2,8.6752484E2,1.1890889E3,2.1939233E3,1.0759357E3,4.5415222E2,5.5761597E2,4.0175623E2,7.2863055E2,1.3889426E2],"tree_param":{"num_deleted":"0","num_feature":"106","num_nodes":"15","size_leaf_vector":"1"}},{"base_weights":[1.07195444E-1,2.0073359E-1,-1.443302E-1,1.08061805E-1,4.0542576E-1,-1.3095044E-2,-2.8927743E-1,2.6928484E-3,2.0597334E-4,3.4886247E-3,5.3836936E-3,-1.1301913E-3,1.2553044E-3,-3.2884395E-3,-8.084706E-4],"categories":[],"categories_nodes":[],"categories_segments":[],"categories_sizes":[],"default_left":[0,0,0,0,0,0,0,0,0,0,0,0,0,0,0],"id":69,"left_children":[1,3,5,7,9,11,13,-1,-1,-1,-1,-1,-1,-1,-1],"loss_changes":[1.5862604E2,9.317264E1,3.476679E1,4.771339E1,1.1325562E1,1.3317287E1,7.136017E0,0E0,0E0,0E0,0E0,0E0,0E0,0E0,0E0],"parents":[2147483647,0,0,1,1,2,2,3,3,4,4,5,5,6,6],"right_children":[2,4,6,8,10,12,14,-1,-1,-1,-1,-1,-1,-1,-1],"split_conditions":[2.1E1,1.9E1,5.17E-1,7E0,3.7E1,-4.8E0,4.86E1,2.6928484E-3,2.0597334E-4,3.4886247E-3,5.3836936E-3,-1.1301913E-3,1.2553044E-3,-3.2884395E-3,-8.084706E-4],"split_indices":[28,80,55,27,54,25,56,0,0,0,0,0,0,0,0],"split_type":[0,0,0,0,0,0,0,0,0,0,0,0,0,0,0],"sum_hessian":[6.739997E3,4.9131E3,1.826897E3,3.3830122E3,1.5300879E3,9.593722E2,8.675248E2,1.1890889E3,2.1939233E3,1.0759357E3,4.5415222E2,5.5761597E2,4.0175623E2,7.2863055E2,1.3889426E2],"tree_param":{"num_deleted":"0","num_feature":"106","num_nodes":"15","size_leaf_vector":"1"}},{"base_weights":[-1.06171094E-1,-2.6215875E-1,4.2541817E-2,-3.4101713E-1,-5.4043785E-2,-1.9580331E-1,1.3527457E-1,-2.775389E-3,-5.163665E-3,-1.983618E-3,7.1716975E-5,-1.7007235E-4,-3.3112701E-3,2.7395627E-3,6.3557184E-4],"categories":[],"categories_nodes":[],"categories_segments":[],"categories_sizes":[],"default_left":[0,0,0,0,0,0,0,0,0,0,0,0,0,0,0],"id":70,"left_children":[1,3,5,7,9,11,13,-1,-1,-1,-1,-1,-1,-1,-1],"loss_changes":[1.5631705E2,5.3955154E1,7.628726E1,2.6401947E1,7.9958825E0,2.3387054E1,2.4693275E1,0E0,0E0,0E0,0E0,0E0,0E0,0E0,0E0],"parents":[2147483647,0,0,1,1,2,2,3,3,4,4,5,5,6,6],"right_children":[2,4,6,8,10,12,14,-1,-1,-1,-1,-1,-1,-1,-1],"split_conditions":[1.5E1,3.8E0,-2.4E0,2.3E1,9E0,-3.7E0,8E0,-2.775389E-3,-5.163665E-3,-1.983618E-3,7.1716975E-5,-1.7007235E-4,-3.3112701E-3,2.7395627E-3,6.3557184E-4],"split_indices":[51,77,77,80,101,25,103,0,0,0,0,0,0,0,0],"split_type":[0,0,0,0,0,0,0,0,0,0,0,0,0,0,0],"sum_hessian":[6.737084E3,3.2877454E3,3.4493386E3,2.3838315E3,9.039139E2,9.658259E2,2.4835127E3,1.7521267E3,6.317049E2,2.6855173E2,6.353621E2,4.1656552E2,5.4926044E2,8.455779E2,1.6379348E3],"tree_param":{"num_deleted":"0","num_feature":"106","num_nodes":"15","size_leaf_vector":"1"}},{"base_weights":[1.061711E-1,2.6215875E-1,-4.254181E-2,3.4101713E-1,5.40438E-2,1.9580333E-1,-1.3527457E-1,2.775389E-3,5.163665E-3,1.983618E-3,-7.1716764E-5,1.7007244E-4,3.3112701E-3,-2.7395627E-3,-6.355718E-4],"categories":[],"categories_nodes":[],"categories_segments":[],"categories_sizes":[],"default_left":[0,0,0,0,0,0,0,0,0,0,0,0,0,0,0],"id":71,"left_children":[1,3,5,7,9,11,13,-1,-1,-1,-1,-1,-1,-1,-1],"loss_changes":[1.5631705E2,5.3955154E1,7.628726E1,2.6401947E1,7.995881E0,2.3387058E1,2.4693275E1,0E0,0E0,0E0,0E0,0E0,0E0,0E0,0E0],"parents":[2147483647,0,0,1,1,2,2,3,3,4,4,5,5,6,6],"right_children":[2,4,6,8,10,12,14,-1,-1,-1,-1,-1,-1,-1,-1],"split_conditions":[1.5E1,3.8E0,-2.4E0,2.3E1,9E0,-3.7E0,8E0,2.775389E-3,5.163665E-3,1.983618E-3,-7.1716764E-5,1.7007244E-4,3.3112701E-3,-2.7395627E-3,-6.355718E-4],"split_indices":[51,77,77,80,101,25,103,0,0,0,0,0,0,0,0],"split_type":[0,0,0,0,0,0,0,0,0,0,0,0,0,0,0],"sum_hessian":[6.737084E3,3.2877454E3,3.4493386E3,2.3838315E3,9.039139E2,9.658259E2,2.4835127E3,1.7521267E3,6.317049E2,2.6855173E2,6.353621E2,4.1656552E2,5.4926044E2,8.455778E2,1.6379348E3],"tree_param":{"num_deleted":"0","num_feature":"106","num_nodes":"15","size_leaf_vector":"1"}},{"base_weights":[-1.0515838E-1,-1.9716537E-1,1.4294618E-1,-5.140728E-2,-3.2386395E-1,2.7282739E-2,2.9229337E-1,-1.4862737E-3,8.6302875E-4,-4.8518437E-3,-2.5702426E-3,1.218554E-3,-1.1353E-3,2.4407196E-3,4.6751807E-3],"categories":[],"categories_nodes":[],"categories_segments":[],"categories_sizes":[],"default_left":[0,0,0,0,0,0,0,0,0,0,0,0,0,0,0],"id":72,"left_children":[1,3,5,7,9,11,13,-1,-1,-1,-1,-1,-1,-1,-1],"loss_changes":[1.5377235E2,9.072322E1,3.1474861E1,3.061948E1,2.8216675E1,1.3706505E1,6.6062546E0,0E0,0E0,0E0,0E0,0E0,0E0,0E0,0E0],"parents":[2147483647,0,0,1,1,2,2,3,3,4,4,5,5,6,6],"right_children":[2,4,6,8,10,12,14,-1,-1,-1,-1,-1,-1,-1,-1],"split_conditions":[2.2E1,1.2E1,5.36E-1,1.3E1,7E0,-4.7E0,2.8E1,-1.4862737E-3,8.6302875E-4,-4.8518437E-3,-2.5702426E-3,1.218554E-3,-1.1353E-3,2.4407196E-3,4.6751807E-3],"split_indices":[29,80,55,51,51,25,47,0,0,0,0,0,0,0,0],"split_type":[0,0,0,0,0,0,0,0,0,0,0,0,0,0,0],"sum_hessian":[6.7340854E3,4.9125303E3,1.8215553E3,2.2850928E3,2.6274375E3,1.027207E3,7.943482E2,1.339417E3,9.456758E2,7.6787646E2,1.8595612E3,6.145784E2,4.1262857E2,6.247982E2,1.6954999E2],"tree_param":{"num_deleted":"0","num_feature":"106","num_nodes":"15","size_leaf_vector":"1"}},{"base_weights":[1.0515838E-1,1.9716536E-1,-1.4294617E-1,5.140727E-2,3.2386395E-1,-2.7282728E-2,-2.9229337E-1,1.4862737E-3,-8.6302904E-4,4.8518437E-3,2.5702426E-3,-1.2185536E-3,1.1352998E-3,-2.4407196E-3,-4.6751807E-3],"categories":[],"categories_nodes":[],"categories_segments":[],"categories_sizes":[],"default_left":[0,0,0,0,0,0,0,0,0,0,0,0,0,0,0],"id":73,"left_children":[1,3,5,7,9,11,13,-1,-1,-1,-1,-1,-1,-1,-1],"loss_changes":[1.5377234E2,9.0723236E1,3.1474865E1,3.0619492E1,2.8216675E1,1.3706499E1,6.6062546E0,0E0,0E0,0E0,0E0,0E0,0E0,0E0,0E0],"parents":[2147483647,0,0,1,1,2,2,3,3,4,4,5,5,6,6],"right_children":[2,4,6,8,10,12,14,-1,-1,-1,-1,-1,-1,-1,-1],"split_conditions":[2.2E1,1.2E1,5.36E-1,1.3E1,7E0,-4.7E0,2.8E1,1.4862737E-3,-8.6302904E-4,4.8518437E-3,2.5702426E-3,-1.2185536E-3,1.1352998E-3,-2.4407196E-3,-4.6751807E-3],"split_indices":[29,80,55,51,51,25,47,0,0,0,0,0,0,0,0],"split_type":[0,0,0,0,0,0,0,0,0,0,0,0,0,0,0],"sum_hessian":[6.7340854E3,4.9125303E3,1.8215553E3,2.2850928E3,2.6274375E3,1.027207E3,7.943482E2,1.339417E3,9.456758E2,7.6787646E2,1.8595612E3,6.145784E2,4.126286E2,6.247982E2,1.6954999E2],"tree_param":{"num_deleted":"0","num_feature":"106","num_nodes":"15","size_leaf_vector":"1"}},{"base_weights":[-1.04153804E-1,-2.0253517E-1,1.23535745E-1,-1.1315029E-1,-4.026419E-1,-9.58743E-2,2.0922531E-1,-2.6227229E-3,-2.6280907E-4,-3.45769E-3,-5.364375E-3,1.8926724E-4,-2.4181348E-3,3.30315E-3,1.3531571E-3],"categories":[],"categories_nodes":[],"categories_segments":[],"categories_sizes":[],"default_left":[0,0,0,0,0,0,0,0,0,0,0,0,0,0,0],"id":74,"left_children":[1,3,5,7,9,11,13,-1,-1,-1,-1,-1,-1,-1,-1],"loss_changes":[1.5082649E2,8.4043884E1,3.822044E1,4.2107998E1,1.0857178E1,9.576713E0,1.3035046E1,0E0,0E0,0E0,0E0,0E0,0E0,0E0,0E0],"parents":[2147483647,0,0,1,1,2,2,3,3,4,4,5,5,6,6],"right_children":[2,4,6,8,10,12,14,-1,-1,-1,-1,-1,-1,-1,-1],"split_conditions":[2E1,1.9E1,-2.4E0,8E0,3.7E1,-4.3E0,-6.4E0,-2.6227229E-3,-2.6280907E-4,-3.45769E-3,-5.364375E-3,1.8926724E-4,-2.4181348E-3,3.30315E-3,1.3531571E-3],"split_indices":[28,80,77,51,54,25,25,0,0,0,0,0,0,0,0],"split_type":[0,0,0,0,0,0,0,0,0,0,0,0,0,0,0],"sum_hessian":[6.731086E3,4.7002754E3,2.0308107E3,3.250077E3,1.4501985E3,5.703354E2,1.4604752E3,1.1956232E3,2.0544536E3,1.0201461E3,4.300524E2,3.1971017E2,2.5062523E2,5.5224176E2,9.082335E2],"tree_param":{"num_deleted":"0","num_feature":"106","num_nodes":"15","size_leaf_vector":"1"}},{"base_weights":[1.0415381E-1,2.0253517E-1,-1.2353574E-1,1.131503E-1,4.026419E-1,9.587432E-2,-2.0922531E-1,2.6227229E-3,2.628091E-4,3.45769E-3,5.3643743E-3,-1.8926717E-4,2.418135E-3,-3.30315E-3,-1.3531571E-3],"categories":[],"categories_nodes":[],"categories_segments":[],"categories_sizes":[],"default_left":[0,0,0,0,0,0,0,0,0,0,0,0,0,0,0],"id":75,"left_children":[1,3,5,7,9,11,13,-1,-1,-1,-1,-1,-1,-1,-1],"loss_changes":[1.5082648E2,8.404387E1,3.822045E1,4.2107998E1,1.0857193E1,9.576714E0,1.3035046E1,0E0,0E0,0E0,0E0,0E0,0E0,0E0,0E0],"parents":[2147483647,0,0,1,1,2,2,3,3,4,4,5,5,6,6],"right_children":[2,4,6,8,10,12,14,-1,-1,-1,-1,-1,-1,-1,-1],"split_conditions":[2E1,1.9E1,-2.4E0,8E0,3.7E1,-4.3E0,-6.4E0,2.6227229E-3,2.628091E-4,3.45769E-3,5.3643743E-3,-1.8926717E-4,2.418135E-3,-3.30315E-3,-1.3531571E-3],"split_indices":[28,80,77,51,54,25,25,0,0,0,0,0,0,0,0],"split_type":[0,0,0,0,0,0,0,0,0,0,0,0,0,0,0],"sum_hessian":[6.731086E3,4.7002754E3,2.0308107E3,3.250077E3,1.4501985E3,5.703354E2,1.4604752E3,1.1956232E3,2.0544536E3,1.0201461E3,4.300524E2,3.1971017E2,2.5062523E2,5.5224176E2,9.082335E2],"tree_param":{"num_deleted":"0","num_feature":"106","num_nodes":"15","size_leaf_vector":"1"}},{"base_weights":[-1.0316247E-1,-2.553684E-1,4.179398E-2,-3.3299375E-1,-5.0932277E-2,-1.9111021E-1,1.323406E-1,-2.7053615E-3,-5.061223E-3,-1.9392485E-3,9.700027E-5,-2.4510568E-4,-3.2953708E-3,2.6856244E-3,6.1921787E-4],"categories":[],"categories_nodes":[],"categories_segments":[],"categories_sizes":[],"default_left":[0,0,0,0,0,0,0,0,0,0,0,0,0,0,0],"id":76,"left_children":[1,3,5,7,9,11,13,-1,-1,-1,-1,-1,-1,-1,-1],"loss_changes":[1.4847287E2,5.207489E1,7.2726616E1,2.5587433E1,7.8443613E0,2.2257568E1,2.380111E1,0E0,0E0,0E0,0E0,0E0,0E0,0E0,0E0],"parents":[2147483647,0,0,1,1,2,2,3,3,4,4,5,5,6,6],"right_children":[2,4,6,8,10,12,14,-1,-1,-1,-1,-1,-1,-1,-1],"split_conditions":[1.5E1,3.8E0,-2.4E0,2.3E1,9E0,-3.5E0,8E0,-2.7053615E-3,-5.061223E-3,-1.9392485E-3,9.700027E-5,-2.4510568E-4,-3.2953708E-3,2.6856244E-3,6.1921787E-4],"split_indices":[51,77,77,80,101,25,103,0,0,0,0,0,0,0,0],"split_type":[0,0,0,0,0,0,0,0,0,0,0,0,0,0,0],"sum_hessian":[6.7279404E3,3.281532E3,3.4464087E3,2.3779753E3,9.0355676E2,9.644746E2,2.481934E3,1.74942E3,6.2855524E2,2.6839273E2,6.3516406E2,4.382312E2,5.262434E2,8.4483234E2,1.6371017E3],"tree_param":{"num_deleted":"0","num_feature":"106","num_nodes":"15","size_leaf_vector":"1"}},{"base_weights":[1.0316247E-1,2.553684E-1,-4.179398E-2,3.3299375E-1,5.0932277E-2,1.911102E-1,-1.323406E-1,2.7053615E-3,5.061223E-3,1.9392485E-3,-9.7000215E-5,2.4510518E-4,3.2953708E-3,-2.6856244E-3,-6.192178E-4],"categories":[],"categories_nodes":[],"categories_segments":[],"categories_sizes":[],"default_left":[0,0,0,0,0,0,0,0,0,0,0,0,0,0,0],"id":77,"left_children":[1,3,5,7,9,11,13,-1,-1,-1,-1,-1,-1,-1,-1],"loss_changes":[1.4847287E2,5.207489E1,7.272661E1,2.5587433E1,7.8443613E0,2.2257576E1,2.3801117E1,0E0,0E0,0E0,0E0,0E0,0E0,0E0,0E0],"parents":[2147483647,0,0,1,1,2,2,3,3,4,4,5,5,6,6],"right_children":[2,4,6,8,10,12,14,-1,-1,-1,-1,-1,-1,-1,-1],"split_conditions":[1.5E1,3.8E0,-2.4E0,2.3E1,9E0,-3.5E0,8E0,